svm_type c_svc
kernel_type histogram
nr_class 2
total_sv 26
rho 1.05879
label 1 -1
probA -7.19433
probB -1.84581
nr_sv 2 24
SV
0.004590466811949993 0:0.076546952 1:0.28941184 2:0.34603149 3:0.023861626 4:0.25513971 5:0.0085274577 6:0.25938651 7:0.041294545 8:0.15256681 9:0.081740648 10:0.028697718 11:0.054618396 12:0.6445151 13:0.52385533 14:0.16870587 15:0.13742425 16:0.35452878 17:0.75237864 18:0.048673771 19:1.1213261 20:0.66147661 21:0.55538327 22:0.41660097 23:0.01505732 24:0.37886813 25:0.16580585 26:0.012534105 27:0.0013195918 28:0.058123432 29:0.051979803 30:1.333456 31:0.12644055 32:0.12319659 33:0.46701965 34:0.48847529 35:0.09241458 36:0.0040153228 37:0.14558995 38:0.66038704 39:0.081480466 40:0.014838371 41:0.4390212 42:0.45260352 43:0.20287304 44:0.091576017 45:0.053784888 46:0.57540101 47:0.56572008 48:0.98604327 49:0.27351612 50:0.037183966 51:0.37220156 52:0.17716497 53:0.0092798807 54:0.72861946 55:0.36723694 56:0.3825959 57:0.018532127 58:0.062216572 59:1.8916209 60:0.20163524 61:0.26716343 62:0.19544449 63:0.18465105 64:0.39326864 65:1.6741666 66:0.41739646 67:0.026077071 68:0.10487694 69:0.066077992 70:1.4287747 71:0.21072638 72:0.0034535483 73:0.074886166 74:0.019234886 75:0.015483675 76:1.0669929 77:0.15141414 78:0.14089113 79:0.25895739 80:0.18921465 81:0.11206133 82:0.76291353 83:0.89550966 84:0.1471567 85:0.88696957 86:0.28321654 87:0.5055483 88:0.056522209 89:0.54282337 90:0.2289498 91:0.08454413 92:1.1774528 93:0.017087873 94:0.15265015 95:0.14381981 96:0.16767584 97:0.086725056 98:0.058910925 99:0.14375438 100:0.077884682 101:0.19252522 102:1.1597292 103:0.22315378 104:0.43246624 105:0.36197132 106:0.28680587 107:0.43640736 108:1.5253423 109:0.029428165 110:0.30588713 111:0.04853341 112:0.26508069 113:0.19496952 114:0.51242965 115:0.017774105 116:0.0081950622 117:0.07385689 118:0.43218473 119:0.46610928 120:0.47769612 121:0.44761759 122:0.78120434 123:0.14550172 124:0.090741031 125:0.014322169 126:0.12494162 127:0.0099645825 128:0.2951819 129:0.22507785 130:0.08974006 131:0.82125306 132:0.054030292 133:0.0060662786 134:0.27983797 135:0.31177512 136:0.028809352 137:0.020364618 138:0.39336902 139:0.11209988 140:0.11008117 141:0.45763043 142:0.25184369 143:0.10170485 144:1.034587 145:0.29429239 146:0.77858204 147:0.55082107 148:0.0016925603 149:1.9147204 150:0.10416868 151:0.56527746 152:0.15688874 153:0.28174549 154:1.8164368 155:0.34853339 156:0.70009303 157:0.56991708 158:0.80447614 159:0.024219863 160:0.89411831 161:0.036013283 162:0.51147789 163:0.36951306 164:0.3590821 165:0.11060426 166:0.0050060917 167:1.1182332 168:1.3336873 169:0.44724974 170:0.50917685 171:0.32646534 172:2.4474695 173:0.39849362 174:0.10149547 175:0.22827917 176:0.54182619 177:0.027578149 178:0.7724402 179:0.58985072 180:0.017067835 181:0.16164598 182:0.013789225 183:0.59644753 184:0.4806025 185:0.093053497 186:0.33469775 187:1.6978287 188:1.0064882 189:0.3836332 190:0.54482615 191:0.38383529 192:0.043894395 193:0.22173777 194:0.26945037 195:0.058672018 196:0.071402147 197:0.14528051 198:0.25543454 199:0.076065995 200:0.030092869 201:0.16675454 202:0.31233168 203:0.064167991 204:0.0015041303 205:0.46929514 206:0.33274305 207:0.15446745 208:0.15168561 209:0.40852448 210:0.76928771 211:0.69725448 212:0.10527457 213:0.023910148 214:0.39062133 215:0.03719135 216:0.76035011 217:0.015096791 218:0.59328735 219:0.35646096 220:0.056889717 221:0.23447864 222:3.1438119 223:0.020749062 224:0.41216522 225:0.20210941 226:0.23699495 227:2.3530736 228:0.022104209 229:0.015555613 230:0.035586879 231:0.0050637247 232:0.4172726 233:0.35016826 234:0.027751997 235:0.89326912 236:0.021500042 237:0.10152914 238:0.76719636 239:1.2680565 240:0.19297722 241:2.2318192 242:1.0642654 243:0.036133207 244:0.3504194 245:0.023454154 246:0.46069366 247:0.013405852 248:0.90035278 249:0.596398 250:0.10852072 251:0.0085697109 252:0.23860423 253:0.90728617 254:0.62938178 255:0.085081413 256:0.60331053 257:0.090847857 258:0.15630166 259:0.056967545 260:1.3747596 261:0.69055104 262:0.050743911 263:0.18574788 264:0.11156172 265:0.23829252 266:0.18973289 267:0.1935281 268:0.03195776 269:0.5783813 270:0.030872488 271:1.0102006 272:0.30390742 273:0.06651099 274:0.50234097 275:0.21205594 276:0.3263422 277:0.47141814 278:0.4427107 279:3.0739634 280:0.0058319294 281:0.074930198 282:0.13498506 283:0.012100467 284:0.056773465 285:1.5430864 286:0.67812604 287:0.022111012 288:0.44391575 289:0.56332338 290:1.5512059 291:2.2091827 292:0.1003516 293:0.3404679 294:0.22777551 295:0.17448892 296:0.22600971 297:0.27461123 298:0.047261655 299:0.54603094 300:0.45859128 301:0.026337236 302:0.23091538 303:0.25675267 304:0.020005101 305:0 306:0.38549995 307:0.24331592 308:0.44894785 309:0.026925143 310:0.14654008 311:0.12783314 312:2.1051605 313:0.4053762 314:0.47418162 315:0.32867396 316:0.35894197 317:0.15785515 318:0.62734371 319:0.24518378 320:0.17537661 321:1.3095232 322:0.018190345 323:1.3049896 324:0.56107062 325:0.73588729 326:0.11672606 327:0.84584934 328:2.7308688 329:1.0329579 330:0.1300326 331:0.56552112 332:0.52447802 333:0.059712954 334:0.53885227 335:0.21071684 336:1.0590782 337:0.1890658 338:0.033733159 339:0.18716247 340:0.063558072 341:0.66507345 342:0.1808808 343:0.83074832 344:1.0715185 345:0.41344568 346:0.17148598 347:0.32536328 348:0.85657579 349:0.05473616 350:0.0013830226 351:0.61465627 352:0.16322069 353:0.011435775 354:0.13458776 355:0.10984702 356:1.5324491 357:0.660981 358:0 359:0.27990079 360:1.793802 361:0.96654344 362:0.44416445 363:1.1667351 364:0.022252729 365:0.58988351 366:0.088357009 367:0.18072045 368:0.020852212 369:0.06661728 370:0.57450253 371:0.35139483 372:1.1545269 373:0.066992357 374:0.089934662 375:0.14817505 376:0.11347464 377:1.3932278 378:0.21726288 379:0.34660766 380:0.078796029 381:0.57752228 382:0.36346808 383:0.036126938 384:0.64598906 385:0.0255759 386:1.4466808 387:0.2209142 388:0.20184027 389:0.18864292 390:0.9218989 391:0.22545779 392:0.27066264 393:0.025049035 394:0.058592785 395:0.089120455 396:0.34716368 397:0.017339619 398:0.34812406 399:0.96100056 400:0.10514928 401:0.35617059 402:0.22517078 403:0.29753247 404:0.32114932 405:0.22561738 406:0.088848077 407:0.32148665 408:0 409:0.25117201 410:0.081512861 411:0.11486877 412:0.73181522 413:0.0025043054 414:0.053835008 415:0.14746147 416:0.024217926 417:0.4510386 418:0.8071478 419:2.248044 420:0.073647544 421:0.11769574 422:0.47528604 423:0.7080282 424:0.76096594 425:1.2467618 426:0.90372682 427:1.3843756 428:0.38786259 429:0.18487619 430:0.035479266 431:2.1739454 432:0.16709992 433:0.064980187 434:0.013559346 435:0.054717451 436:0.057103988 437:0.095118731 438:0.98613459 439:0.00085563806 440:0.23693682 441:0.023432251 442:0.21608372 443:0.21804686 444:0.15799408 445:0.33856758 446:1.4820467 447:0.24419574 448:0.046206687 449:1.2925919 450:0.364416 451:0.79719138 452:0.01326906 453:0.030617584 454:0.0055633951 455:0.11496264 456:0.2832765 457:0.039467428 458:0.32854906 459:0.12503795 460:0.22773673 461:0.26714483 462:0.31081161 463:1.5576614 464:0.57040918 465:0.82566786 466:2.8185418 467:1.4621121 468:0.42440927 469:0.090548925 470:0.12830558 471:0.084096536 472:0.1316141 473:0.77199662 474:0.22759573 475:1.4447362 476:0.31501761 477:0.43152377 478:0.37977654 479:0.30186677 480:0.23289403 481:0.041353866 482:0.015068245 483:0.067701288 484:0.19228333 485:0.67258924 486:0.31974819 487:0.1126155 488:0.20347019 489:0.87790006 490:0.84060794 491:0.12314983 492:0.24313299 493:0.082749978 494:0.077291913 495:0.1047027 496:0.32660881 497:0.13055375 498:0.039295729 499:0.32569569 500:0.19362362 501:0.43895364 502:1.249256 503:0.15792744 504:0.051415879 505:0.22328605 506:0.0060722656 507:0.096038975 508:0.14528216 509:0.33356327 510:0.051713929 511:0.29744586 512:0.27075607 513:0.73433775 514:0.094938546 515:0.54079664 516:0.23077324 517:0.93286693 518:0.53991991 519:0.25313297 520:0.22636417 521:0.1368544 522:0.49604332 523:0.45068926 524:0.46384543 525:1.6002523 526:0.07535553 527:0.015721217 528:0.17793864 529:0.025857458 530:0.27539793 531:0.38643831 532:0.18950497 533:0.62096024 534:0.95021313 535:0.087954879 536:0.31378752 537:0.035896674 538:0.22943772 539:0.47144347 540:0.99573171 541:0.21622021 542:0.088437408 543:0.48770452 544:0.49060851 545:0.14597741 546:0.99842769 547:0.15752487 548:0.14725289 549:0.11988466 550:0.54546797 551:0.12815437 552:0.47234255 553:0.032760724 554:0.54017568 555:0.198837 556:0.39491132 557:0.55788982 558:0.057389326 559:0.27039653 560:0.21092932 561:0.43940917 562:0.39075056 563:0.29549515 564:0.26376674 565:0.020237327 566:0.054955952 567:1.5172964 568:0.36047253 569:0.2546002 570:0.38671598 571:0.076697633 572:0.09857934 573:0.81949019 574:0.20910768 575:0.77016169 576:0.062386721 577:0.0022926587 578:0.21399046 579:0.083140284 580:1.5544567 581:0.25155348 582:0.18559298 583:0.26686326 584:1.3389391 585:0.016294412 586:0.098022439 587:0.097777002 588:0 589:0.28521624 590:0.4587881 591:0.1190704 592:0.23033644 593:0.028333498 594:0.038325839 595:0.10807768 596:0.74913383 597:0.83806115 598:0.052875198 599:0.36369368 600:0.21562023 601:0.10318503 602:0.11774687 603:1.3033834 604:0.19128029 605:0.054666575 606:2.0810888 607:0.77433264 608:0.38414615 609:0.87367249 610:0.3202838 611:1.0074427 612:1.0405904 613:0.15991881 614:0.1283128 615:0.33800319 616:0.006903721 617:2.7828195 618:0.61246324 619:0.0091192322 620:0.15166925 621:0.13677643 622:0.29269174 623:0.25934133 624:0.030683191 625:0.24181195 626:0.1175935 627:1.1321932 628:0.19566163 629:0.61112356 630:0.20045593 631:0.11524857 632:0.99076873 633:0.73160833 634:0.16694443 635:0.081089668 636:0.13499098 637:0.082245983 638:0.32946971 639:0.0016252818 640:0.0065312991 641:0.13804743 642:0.14057155 643:0.25234619 644:0.20432214 645:0.99836338 646:0.91251737 647:0.2195145 648:0.014534335 649:0.17069137 650:0.28392658 651:0.20560673 652:0.45875221 653:0.066283196 654:0.59363848 655:0.97119635 656:0.64532167 657:0.13376284 658:0.23431635 659:0.14352362 660:0.65175092 661:0.045121543 662:0.0685746 663:0.19706461 664:0.045698084 665:0.20755605 666:0.23235346 667:0.30711225 668:0.17052878 669:1.9056728 670:0 671:0.038754191 672:0.13536948 673:0.24085239 674:0.99682295 675:0.29192385 676:0.10009255 677:0.55263329 678:0.48035854 679:0.73926622 680:0.89466786 681:0.47043881 682:0.019799164 683:0.077124879 684:0.32278576 685:0.50698328 686:0.24734154 687:0.48717239 688:0.088051923 689:0.29764628 690:1.0245677 691:0.078640111 692:0.37757906 693:0.076930664 694:0.022297742 695:0.37499052 696:1.288249 697:0.079344608 698:0.30329421 699:0.11860225 700:0.038715523 701:0.58212769 702:0.62949997 703:0.42103019 704:0.62116885 705:1.2802105 706:0.31177521 707:0.050294641 708:0.32697499 709:0.88042057 710:0.95713681 711:0.44854018 712:0.1491928 713:0.24327663 714:0.18183047 715:0.30172527 716:0.15714431 717:0.32029483 718:0.1293904 719:0.065168634 720:0.14191465 721:0.10805735 722:0.96395391 723:0.97195089 724:0.63056004 725:0.18702292 726:0.023569316 727:0.31386673 728:0.069737032 729:0.25275114 730:0.6134398 731:0.17126067 732:0.08500398 733:0.017318651 734:0.12422591 735:0.052773908 736:2.394119 737:0.11734536 738:0.14044324 739:0.14847364 740:0.56720579 741:0.015405988 742:0.32914618 743:0.066525504 744:0.28041768 745:0.13294257 746:0.061637297 747:0.067777656 748:0.13037825 749:0.52391273 750:0.047828358 751:0.093150914 752:0.87315738 753:0.46441123 754:0.07896544 755:0.76088965 756:0.022131206 757:0.15066947 758:0.15104415 759:0.098659478 760:0.83244252 761:0.4418008 762:0.3092334 763:0.09633369 764:0.49315956 765:0.29072919 766:0.37862968 767:2.1242771 768:0.23087934 769:0.012903444 770:0.99447823 771:1.1319995 772:0.28917792 773:0.1837157 774:0.58278877 775:0.075274438 776:0.024750244 777:0.42663676 778:0.099781267 779:0.58541989 780:0.040874131 781:0.28995997 782:0.67556053 783:0.36560139 784:0.59452105 785:0.2122438 786:0.80783343 787:0.32515544 788:0.11884693 789:1.0129336 790:0.1226107 791:1.1302491 792:0.34846362 793:0.10138986 794:0.89251846 795:0.98841 796:0.038489476 797:0.022585105 798:0.089372918 799:1.386192 800:0.4068765 801:0.137817 802:0.22420819 803:0.2681812 804:0.20469393 805:1.0161319 806:0.1130606 807:0.23274097 808:0.58394325 809:0.35347882 810:1.188314 811:0.76462924 812:0.13829103 813:0.72924548 814:0.20197284 815:0.0055254777 816:1.6798697 817:0.036017686 818:0.60380566 819:0.14436218 820:0.3729158 821:0.2315419 822:0.24506319 823:1.5655234 824:0.26438868 825:0.83118844 826:0.52736861 827:0.13629392 828:0.29146957 829:0.21859828 830:0.77156889 831:0.033534925 832:0.042368762 833:0.24586356 834:0.081652209 835:0.73370451 836:0.89711815 837:0.30882829 838:0.13167053 839:0.46355432 840:0.26848504 841:0.001994062 842:0.10302249 843:0.076331139 844:0.93871444 845:0.094849333 846:0.0939826 847:0.017584529 848:0.86481106 849:0.25715962 850:0.64730948 851:1.2353238 852:1.2844362 853:0.083956055 854:0.084788226 855:0.40905666 856:1.3136786 857:0.27035686 858:0.42124724 859:0.60934472 860:0.45059562 861:0.62855899 862:0.89526784 863:0.30538648 864:0.067653418 865:0.89717567 866:0.40481925 867:1.0657015 868:0.41562384 869:2.2111094 870:0.34898672 871:0.15495618 872:0.059675772 873:1.2562642 874:0.005021078 875:0.049526677 876:1.0703729 877:0.4488025 878:0.5007481 879:0.12459492 880:0.031114066 881:0.97047842 882:0.10370897 883:0.59581548 884:0.30989638 885:0.28495157 886:1.3461894 887:0.26068887 888:0.046484012 889:1.2931874 890:0.51926982 891:0.6381458 892:0.28711629 893:0.15405324 894:0 895:3.8104944 896:0.26216987 897:0.10842677 898:0.83909059 899:0.26229423 900:0.02927332 901:0.18560296 902:0.047168661 903:0.23669682 904:0.59576124 905:0.26350388 906:0.95615232 907:0.55558479 908:0.75496298 909:0.29825521 910:0.11551601 911:1.3545884 912:0.97446299 913:0.17125754 914:0.1861956 915:0.75104505 916:0.61617851 917:0.0010187957 918:0.16322112 919:0.19282819 920:0.080401994 921:0.17196243 922:0.010677131 923:0.036492061 924:0.25346074 925:0.56128383 926:0 927:0.48751342 928:0.052488305 929:0.26672292 930:0.09553659 931:0.11992656 932:0.80030596 933:0.28582388 934:0.17015402 935:0.12597236 936:0.049120601 937:0.0088336505 938:0.067722127 939:0.52341843 940:0.10205012 941:0.48361167 942:1.2023771 943:0.51364517 944:0.31390658 945:0.20105997 946:0.11622868 947:0.50278926 948:0.28117493 949:0.090524986 950:0.51094294 951:1.2943928 952:0.43609357 953:0.053852785 954:0.66011792 955:0.22326088 956:0.1089627 957:0.10308035 958:0.67306119 959:0.65498465 960:0.19754252 961:1.0748496 962:0.32532644 963:0.39230543 964:0.10962025 965:0.057880584 966:0.77587283 967:0.25127473 968:0.10625248 969:0.41508815 970:0 971:0.093712837 972:0.26430607 973:0.15967633 974:0.37559244 975:0.019478206 976:0.15647228 977:0.59393001 978:0.080092043 979:0.46713424 980:1.3758936 981:0.50101465 982:0.80799305 983:0.24769177 984:0.090068921 985:0.43407688 986:2.2931957 987:0.044835173 988:1.5067381 989:1.2075719 990:0.36634311 991:0.12628929 992:0.33278567 993:0.10160096 994:0.24805015 995:0.04970764 996:0.085230239 997:0.018728197 998:0.002468958 999:0.029981049 1000:0.042578902 1001:0.2573626 1002:0.84227324 1003:0.36377427 1004:0.7228471 1005:0.079984918 1006:1.1601351 1007:0.3911055 1008:0.77003181 1009:0.20002714 1010:0.03398848 1011:0.21444698 1012:0.2283358 1013:0.29645836 1014:0.031502504 1015:0.3164587 1016:0.004905073 1017:0.17453949 1018:0.68027788 1019:1.9384911 1020:1.0546173 1021:0.034374062 1022:0.29016998 1023:0.1444018 1024:0.073316738 1025:0.31595859 1026:0.38081425 1027:0.46366102 1028:0.97262633 1029:0.20288526 1030:0.25780737 1031:0.19077972 1032:0.23498459 1033:0.096687891 1034:0.13968888 1035:0.43798172 1036:0.15677159 1037:0.54495436 1038:0.54032296 1039:0.212309 1040:0.094111584 1041:0.76268655 1042:1.0966158 1043:0.05368869 1044:0.16591956 1045:0.19079185 1046:0.024941666 1047:0.0029281001 1048:0.59823841 1049:0.52289551 1050:3.8567355 1051:0.3481212 1052:0.74788851 1053:0.024161143 1054:0.34346887 1055:0.23099609 1056:0.091655128 1057:0.12584555 1058:0.68004733 1059:0.070632853 1060:0.16920121 1061:0.064195298 1062:0.37131235 1063:0.23539977 1064:1.1747453 1065:0.037074171 1066:0.1154269 1067:1.1869898 1068:0.063150212 1069:0.18644959 1070:0.13554054 1071:0.3164047 1072:0.29964453 1073:0.31026325 1074:0.15559469 1075:0.059687067 1076:0.17522398 1077:0.20638029 1078:1.3146883 1079:0.17937006 1080:1.6830134 1081:0.19559774 1082:0.00013332281 1083:0.22411183 1084:0.39336681 1085:0.28396025 1086:0.12695466 1087:0.21531451 1088:0.97143584 1089:0.26478317 1090:0.82651597 1091:0.75132722 1092:0.051269073 1093:0.20770088 1094:0.42409617 1095:0.42406124 1096:0.40844154 1097:1.6480153 1098:0.23617752 1099:0.88845015 1100:0.20252696 1101:0.28176147 1102:0.0030024524 1103:0.43181345 1104:0.062531449 1105:0.20223188 1106:0.38894898 1107:0.017879307 1108:0.83438796 1109:0.098297566 1110:0.019949473 1111:0.65001535 1112:0.074053824 1113:0.059594631 1114:0.64347839 1115:0.009328872 1116:1.0757527 1117:1.4616816 1118:0.533629 1119:0.63211465 1120:0.61663437 1121:0.52384299 1122:1.8769004 1123:0.74164361 1124:0.36353448 1125:0.16948731 1126:0.71454477 1127:1.9170823 1128:0.746535 1129:0.038500179 1130:1.6104325 1131:0.37491661 1132:0.22785766 1133:0.22099993 1134:0.90360749 1135:0.13651901 1136:0.34311539 1137:0.257438 1138:1.3490723 1139:0.38571668 1140:0.2623024 1141:0.043866254 1142:0.44292665 1143:0.21690014 1144:0.39180055 1145:0.0004640453 1146:0.05555236 1147:0.22985423 1148:0.89273882 1149:0.79252595 1150:0.16429001 1151:0.082595006 1152:0.16418202 1153:0.14579213 1154:0.38142869 1155:1.1335368 1156:0.21588004 1157:1.1659678 1158:0.25749364 1159:0.006218011 1160:0.10185061 1161:1.3638796 1162:0.22514483 1163:1.1774968 1164:0.086397819 1165:0.96304005 1166:1.529389 1167:0.16883227 1168:0.22130619 1169:0.17308339 1170:0.66238743 1171:0.25036258 1172:0.037371341 1173:1.2734214 1174:0.002728815 1175:0.1616261 1176:0.39180398 1177:0.03008984 1178:0.1132152 1179:0.38726643 1180:0.15740143 1181:0.26679727 1182:0.61675715 1183:0.0010096425 1184:0.44444725 1185:3.109376 1186:0.13202171 1187:0.18737972 1188:0.25486088 1189:0.080976143 1190:0.21918419 1191:0.4049857 1192:0.026095225 1193:0.16546124 1194:0.07196784 1195:0.24066074 1196:0.13512257 1197:1.491626 1198:0.24374659 1199:0.064795651 1200:0.1540547 1201:0.039658543 1202:0.50509328 1203:0.089189082 1204:0.28709027 1205:0.37933293 1206:0.072159991 1207:0.24077931 1208:0.23521572 1209:0.67503405 1210:0.23882803 1211:0.14277306 1212:0.35550094 1213:0.45961779 1214:0.42761993 1215:0.052942485 1216:1.1719285 1217:0.71680146 1218:0.43643773 1219:0.31943703 1220:0.84908527 1221:0.4342998 1222:0.98495185 1223:0.45239556 1224:0.20357618 1225:0.33163643 1226:0.01193402 1227:0.034952644 1228:0.11469717 1229:0.0046642474 1230:0.12442451 1231:0.517937 1232:0.24516338 1233:0.090357699 1234:0.048164487 1235:0.86140925 1236:0.77453256 1237:0.53262103 1238:0.51941985 1239:0.32931268 1240:0.04762942 1241:0.034930442 1242:0.17946626 1243:0.13959305 1244:0.014757516 1245:0.064198464 1246:0.44691494 1247:0.33177441 1248:0.037335385 1249:0.43451151 1250:0.14576888 1251:0.0044695227 1252:1.2451631 1253:0.21988977 1254:0.12158372 1255:0.90711474 1256:0.37366846 1257:0.071742408 1258:0.11180052 1259:0.27129287 1260:0.73899949 1261:0.23102939 1262:0.15711384 1263:0.71650469 1264:0.062761046 1265:0.32343295 1266:0.24282506 1267:0.89588523 1268:0.12960434 1269:0.29579085 1270:0.1256853 1271:0.2754769 1272:0.091596454 1273:0.21369071 1274:0.048499662 1275:0.093663059 1276:0.25420785 1277:0.51135111 1278:0.27188522 1279:0.16283885 1280:0.28128859 1281:1.1544021 1282:0.10418649 1283:0.51516366 1284:0.10898355 1285:0.015749294 1286:0.65931684 1287:0.020186668 1288:1.2913578 1289:0.3589389 1290:0.34180367 1291:0.14218931 1292:0.26586181 1293:0.53704512 1294:1.9495343 1295:0.21172728 1296:0.091554455 1297:0.11350807 1298:0.39070031 1299:1.020523 1300:0.1074896 1301:2.1675968 1302:0.04247456 1303:0.18983907 1304:1.0719931 1305:1.3562571 1306:0.30690503 1307:0.12912185 1308:0.99630207 1309:0.28737321 1310:0.16174434 1311:0.27011171 1312:0.38741279 1313:0.34313619 1314:0.15092455 1315:0.2427174 1316:0.51311785 1317:0.79623622 1318:1.9602495 1319:0.26927722 1320:0.084964916 1321:0.061772529 1322:0.13577653 1323:0.60682529 1324:0.044269931 1325:0.053643178 1326:0.69531202 1327:0.21595624 1328:0.047273763 1329:0.37364 1330:0.90212494 1331:0.47320151 1332:0.42510697 1333:0.94139051 1334:0.33936137 1335:0.041482758 1336:0.15026641 1337:0.018474208 1338:1.6565783 1339:0.27623376 1340:0.12716359 1341:0.4827795 1342:0.83615828 1343:0.084787302 1344:0.078656629 1345:0 1346:0.19098265 1347:0.077209882 1348:0.47369513 1349:0.11858296 1350:0.12255246 1351:0.34006429 1352:0.1540287 1353:0.033238959 1354:0.065432757 1355:2.2129712 1356:0.10805239 1357:0.17911009 1358:0.3500177 1359:0.18671182 1360:0.12613872 1361:0.072892889 1362:0.24785902 1363:0.044549648 1364:0.51444906 1365:0.92704451 1366:0.16019873 1367:0.33210307 1368:0.22574751 1369:0.098928019 1370:0.019544411 1371:0.011055971 1372:0.0041193017 1373:0.92075998 1374:1.1755472 1375:0.92164469 1376:0.94474775 1377:0.098023221 1378:0.67602926 1379:2.5252116 1380:0.13232793 1381:0.042937554 1382:0.039061517 1383:1.2535787 1384:0.46898815 1385:0.38568851 1386:0.45544156 1387:0.27694079 1388:0.034465492 1389:0.024578992 1390:0.11854123 1391:1.1210243 1392:0.037466884 1393:0.1165337 1394:0.60955572 1395:0.1002012 1396:2.6592329 1397:1.2584119 1398:0 1399:0.019521935 1400:0.9574703 1401:0.44020033 1402:0.2113004 1403:0.0034987889 1404:0.79085523 1405:0.068623476 1406:0.14305358 1407:0.1687008 1408:0.19501401 1409:0.046039462 1410:0.76982272 1411:0.4633469 1412:0.51127505 1413:0.40615213 1414:0.88052732 1415:1.1904347 1416:0.55634409 1417:0.053767052 1418:0.30896002 1419:0.83883488 1420:1.2870317 1421:0.0058731614 1422:0.24326476 1423:0.52595377 1424:0.0056216032 1425:0.021802567 1426:1.1370107 1427:1.1317462 1428:0.069756396 1429:0.39784318 1430:0.43817967 1431:0.033584401 1432:0.07963293 1433:0.58495635 1434:0.24155925 1435:0.48192176 1436:0.03916521 1437:0.83023137 1438:0.6191982 1439:0.37583199 1440:0.75973588 1441:0.6247443 1442:0.61739069 1443:0.095815755 1444:0.29635066 1445:0.31351477 1446:0.056013778 1447:0.34145114 1448:0.52779472 1449:1.6370734 1450:0.097980432 1451:0.89784241 1452:0.46551335 1453:0.069712713 1454:0.20782681 1455:0.44044206 1456:0.081507318 1457:0.13983291 1458:0.51388431 1459:0 1460:0.85211945 1461:1.4515097 1462:1.3203043 1463:0.15791404 1464:0.098405622 1465:0.10850458 1466:0.45949483 1467:0.50395215 1468:0.27806222 1469:0.94736344 1470:0.0069894311 1471:0.32189849 1472:0.83045942 1473:0.025040543 1474:0.86673975 1475:0.5830676 1476:0.31571877 1477:0.074165888 1478:0.017599253 1479:0.36980477 1480:0.18592021 1481:0.030502839 1482:0.5999611 1483:0.92756248 1484:0.18353504 1485:0.29384044 1486:0.27765051 1487:1.1548194 1488:0.21319206 1489:0.48248142 1490:0.56761914 1491:0.060258761 1492:1.5068121 1493:0.95002419 1494:0.10933901 1495:0.070949085 1496:0.23994784 1497:0.4725008 1498:0.27779034 1499:0.16320795 1500:0.86650503 1501:0.051322978 1502:0.31112173 1503:0.64863688 1504:0.17326462 1505:0.3603127 1506:1.5152043 1507:0.22164068 1508:0.18855539 1509:0.042937726 1510:0.26977044 1511:0.12775916 1512:0.042550951 1513:0.037325181 1514:0.091168918 1515:0.066653028 1516:0.23003976 1517:0.31696984 1518:0.3084226 1519:0.062664874 1520:0.095551521 1521:0.23069155 1522:0.057911851 1523:0.59238416 1524:0.21655753 1525:1.0688576 1526:0.3224538 1527:0.10113411 1528:0.42407534 1529:0.073104732 1530:0.12544182 1531:0.036930844 1532:0.55314571 1533:0.30442128 1534:0.23176715 1535:0.02110824 1536:0.17450459 1537:0.63686329 1538:0.049576186 1539:0.90103108 1540:0.58405787 1541:0.47875416 1542:0.041853942 1543:0.73571151 1544:1.0573202 1545:0.29492736 1546:0.53546292 1547:1.1368914 1548:0.48618868 1549:0.46876299 1550:0.23284382 1551:0.13550772 1552:0.17428534 1553:0.24957614 1554:0.49893904 1555:0.40934068 1556:0.065609969 1557:0.19260466 1558:0.2074074 1559:0.72621965 1560:0.22837774 1561:0.53771955 1562:0.5292713 1563:0.015644528 1564:0.16157389 1565:0.087788582 1566:0.66453218 1567:0.5048207 1568:0.02151829 1569:0.046063792 1570:0.39909115 1571:0.59651691 1572:0.18344128 1573:0.27404466 1574:0.023691181 1575:0.2940549 1576:0.17766571 1577:0.86436611 1578:1.221758 1579:0.011600737 1580:0.48535645 1581:1.397702 1582:0.056651466 1583:0.027518388 1584:0.086741649 1585:0.15675151 1586:0.26692945 1587:1.2107729 1588:1.0872976 1589:0.17906457 1590:0.52276659 1591:0.02676109 1592:1.3923965 1593:0.32843152 1594:0.080876268 1595:0.32321203 1596:0.26971427 1597:0.4849163 1598:0.86233479 1599:0.8973313 1600:0.096497953 1601:0.21153733 1602:0.021672439 1603:0.28312665 1604:0.01391022 1605:0.55163199 1606:0.43833229 1607:1.475439 1608:0.56004941 1609:0.4055635 1610:0.013019729 1611:1.8673877 1612:0.4605208 1613:0.13363844 1614:0.38751894 1615:0.25459698 1616:0.25053021 1617:0.015155067 1618:0.042552426 1619:0.05371619 1620:0.13440742 1621:0.087661527 1622:0.18135093 1623:0.072590731 1624:0.057144094 1625:0.8621527 1626:0.35464671 1627:0 1628:0.024704013 1629:0.19059928 1630:0.10708648 1631:0.0099945879 1632:0.21851744 1633:0.16719799 1634:0.45914349 1635:0.017558053 1636:0.21655104 1637:1.1658757 1638:0.070322484 1639:0.28996906 1640:0.46004128 1641:0.62643653 1642:0.46649921 1643:0.53425533 1644:0.54027963 1645:0.49352112 1646:0.5838362 1647:0.28171366 1648:0.0017634067 1649:0.1045737 1650:0.22755006 1651:0.29540455 1652:0.29453644 1653:0.016221713 1654:0.23122406 1655:0.62164652 1656:1.3442787 1657:0.346073 1658:0.1782375 1659:1.302719 1660:0.11870524 1661:0.10995872 1662:0.039318796 1663:0.40566215 1664:0.025567628 1665:0.01450886 1666:1.048544 1667:0.15647109 1668:1.0969349 1669:0.050442033 1670:0.3353245 1671:0.14010257 1672:1.2201128 1673:0.55362511 1674:0.063964121 1675:0.34768093 1676:0.028866164 1677:0.24084997 1678:0.16514544 1679:0.033728395 1680:0.023099694 1681:0.92976624 1682:0.51313472 1683:1.1134633 1684:0.14342813 1685:0.91825855 1686:0.15649046 1687:0.50196207 1688:0.0018712369 1689:0.90229827 1690:0.035778224 1691:0.3187167 1692:0.59402931 1693:0.44147307 1694:0.55663598 1695:0.25503552 1696:0.03170443 1697:0.077980153 1698:0.32478952 1699:1.8126899 1700:0.22362565 1701:0.49020252 1702:0.0256314 1703:0.85770631 1704:0.84246832 1705:0.14766163 1706:0.13572119 1707:0.037057415 1708:0.61237323 1709:0.11172353 1710:0.10214408 1711:0.63322955 1712:0.44492 1713:0.32634073 1714:0.548572 1715:0.38578317 1716:0.099614881 1717:0.13935541 1718:0.22017856 1719:0.7065053 1720:0.25501201 1721:0.16230163 1722:0.23664024 1723:0.018180188 1724:0.75160384 1725:0.76136374 1726:0.3731406 1727:0.13276857 1728:0.030197898 1729:0.10909456 1730:0.81554091 1731:0.15404251 1732:0.43551221 1733:0.60097486 1734:0.35235357 1735:1.5488391 1736:0.66010344 1737:0.42210555 1738:0.24020165 1739:0.1847517 1740:0.55348223 1741:0.39586148 1742:0.83111709 1743:0.25321484 1744:1.1493535 1745:0.51580352 1746:0.16597642 1747:0.10535043 1748:0.34053516 1749:0.30636272 1750:0.31132138 1751:0.76193804 1752:0.52370185 1753:0.16657373 1754:0.3660329 1755:0.41062662 1756:0.0024061089 1757:0.98641616 1758:0.14659837 1759:0.1771744 1760:1.1609381 1761:0.19266653 1762:0.28456041 1763:0.56494176 1764:1.0472608 1765:0.10337389 1766:0.63072813 1767:0.65321881 1768:0.17812558 1769:0.25522289 1770:1.1068237 1771:0.39186773 1772:1.8843099 1773:0.26766324 1774:0.15030895 1775:0.022791723 1776:0.21641092 1777:0.78558946 1778:0.20732304 1779:0.73449004 1780:0.50938731 1781:0.18380135 1782:0.3049168 1783:0.061378293 1784:0.40387744 1785:0.0006209861 1786:0.015537131 1787:0.47455496 1788:0.75812745 1789:0.033096019 1790:0.4764556 1791:0.39159626 1792:0.56454587 1793:0.2498794 1794:0.20449428 1795:1.512198 1796:0.049417008 1797:0.93879354 1798:0.084390327 1799:0.0066103423 1800:0.24458158 1801:1.1762817 1802:0.016123567 1803:0.0046825856 1804:0.18158978 1805:0.14476435 1806:0.17485632 1807:2.5289302 1808:0.2943379 1809:0.39097264 1810:0.083546177 1811:0.14544494 1812:0.21202214 1813:0.88404721 1814:0.76009417 1815:2.3555372 1816:0.024571268 1817:0.010491473 1818:0.18297993 1819:0.090464704 1820:0.56105173 1821:0.43480721 1822:0.84060729 1823:0.03135965 1824:0.81940359 1825:0.35491654 1826:0.21108755 1827:0.18308164 1828:0.3437832 1829:0.065500833 1830:0.76997608 1831:0.2506066 1832:0.075238571 1833:0.23285441 1834:0.56411159 1835:0.57363582 1836:0.53822905 1837:0.30100396 1838:0.5194785 1839:0.27865174 1840:0.03741584 1841:0.28286341 1842:0.18828131 1843:0.2758151 1844:0.17722468 1845:0.78207475 1846:0.6815961 1847:1.2883216 1848:0.98475891 1849:0.030255802 1850:0.02940972 1851:0.31839162 1852:0.15323454 1853:0.48472291 1854:0.51709175 1855:1.4017239 1856:0.81969261 1857:0.35676414 1858:0.19348787 1859:1.0047581 1860:0.66590577 1861:0.18621428 1862:0.38718116 1863:1.6465391 1864:0.61802256 1865:0.15111156 1866:0.078011334 1867:0.54133117 1868:0.021351347 1869:0.014687758 1870:0.30858192 1871:1.099546 1872:0.51555347 1873:0.11599857 1874:1.1920005 1875:0.64120352 1876:0.082773507 1877:0.37804019 1878:0.17979209 1879:0.73455936 1880:0.62635279 1881:0.22778572 1882:0.3908186 1883:0.22297834 1884:1.656657 1885:0.66360199 1886:0.72483629 1887:1.0869992 1888:0.035825428 1889:0.66472602 1890:0.065954201 1891:0.47195947 1892:0.19487585 1893:0.12680073 1894:0.17259236 1895:0.23236245 1896:0.68187124 1897:0.09465491 1898:0.48900315 1899:1.1513112 1900:0.13965246 1901:0.052018028 1902:0.87664366 1903:0.46555459 1904:0.067403518 1905:0.062903658 1906:0.29976127 1907:0.15767761 1908:0.11305826 1909:0.063030161 1910:0.12916081 1911:0.57439911 1912:0.16204265 1913:0.25710094 1914:1.6181027 1915:1.099501 1916:0.028112769 1917:0.029394817 1918:0.91483873 1919:0.041136812 1920:0.76611233 1921:0.033622008 1922:0.026408132 1923:0.51529294 1924:0.28086177 1925:0.0051214476 1926:0.41271412 1927:0.17587784 1928:0.21266544 1929:0.68433863 1930:0.24501956 1931:0.0030890179 1932:0.44381401 1933:0.0003633005 1934:0.18597712 1935:0.35256371 1936:0.17157803 1937:2.2240217 1938:0.62127972 1939:0.083897725 1940:0.027363917 1941:0.31437758 1942:1.8878466 1943:0.046967696 1944:0.18278436 1945:0.00037151575 1946:0.91977757 1947:0.10716277 1948:0.039216492 1949:0.073453441 1950:0.026813278 1951:0.06771639 1952:0.13838243 1953:1.7166704 1954:0.11560278 1955:0.027914606 1956:0.59635323 1957:0.02657371 1958:0.067060016 1959:2.1468296 1960:2.0723634 1961:0.36580306 1962:0.33288154 1963:0.32626519 1964:0.1002621 1965:0.22414985 1966:0.79939336 1967:0 1968:1.3722913 1969:0.2210661 1970:0.85393411 1971:0.050769191 1972:0.21053524 1973:1.2041476 1974:0.064011887 1975:0.080631047 1976:1.3963146 1977:0.30264992 1978:0.096853614 1979:0.026585739 1980:0.016672133 1981:0.078164749 1982:0.64848727 1983:0.30113983 1984:0.20222569 1985:0.73315924 1986:0.1275726 1987:0.72119445 1988:0.35128006 1989:1.1262747 1990:1.9331045 1991:0.4057461 1992:0.061723504 1993:0.31329653 1994:0.10005431 1995:0.28778526 1996:0.43560073 1997:0.3832725 1998:0.21710792 1999:0.020832609 2000:0.35904929 2001:0.059346382 2002:0.16562681 2003:0.0035737199 2004:0.47996783 2005:0.93551791 2006:0.016943144 2007:0.2496165 2008:0.31850529 2009:0.013218738 2010:0.19049165 2011:0.32822314 2012:0.54450881 2013:0.26368693 2014:0.57738036 2015:0.24592446 2016:0.18375669 2017:0.017217213 2018:0.098571852 2019:0.25959003 2020:0.99866992 2021:0.15432835 2022:0.058282398 2023:0.43642634 2024:0.33584139 2025:0.11081137 2026:0.32576472 2027:0.02461363 2028:0.13270316 2029:0.30581391 2030:0.46938354 2031:0.11297441 2032:0.81007546 2033:0.4339644 2034:0.34607127 2035:0.0075894864 2036:0.36088741 2037:1.8537253 2038:0.27864334 2039:0.13440099 2040:0.43283385 2041:0.036266882 2042:0.16334444 2043:0.062977165 2044:0.0036703949 2045:0.47001576 2046:0.0073075593 2047:0.51253819 
0.004454035688036776 0:0.06587664 1:0.31804097 2:0.35974959 3:0.023415599 4:0 5:0.015561753 6:0.13312303 7:0.047517523 8:0.13442066 9:0.26520383 10:0.01782262 11:0.0030221909 12:0.29102686 13:0.53958058 14:0.19894728 15:0.010934216 16:0.010079152 17:0.43324056 18:0.0043297103 19:0.86523283 20:0.33870968 21:1.3406627 22:0.68620741 23:0 24:0.61959529 25:0.29936919 26:0.20458665 27:0.058112323 28:0.0093755396 29:0.090111174 30:0.46522337 31:0.46194294 32:0.12637621 33:0.53043187 34:0.47583506 35:0.1355359 36:0 37:0.33728844 38:0.64176536 39:0.046191454 40:0.098986082 41:0.49782714 42:0.47652006 43:0.096274994 44:0.2096411 45:0.19649921 46:0.41572052 47:0.45876318 48:0.86696792 49:0.45859343 50:0.030248471 51:0.88174748 52:0.057701655 53:0.047509003 54:0.071895577 55:0.10541157 56:0.068022065 57:0.069128335 58:0.0090585472 59:1.5400779 60:0.086093359 61:0.24712601 62:0.12150676 63:0.33468372 64:0.25248086 65:2.657455 66:0.059306059 67:0.16714159 68:0.15705074 69:0.27952132 70:0.88658404 71:0.038215 72:0.22239739 73:0.023120135 74:0.017579013 75:0.014649142 76:0.75864851 77:0.18733834 78:0.17654173 79:0.0070112874 80:0.055961337 81:0.093947887 82:0.13390595 83:0.47945416 84:0.17875744 85:0.65727204 86:0.3463361 87:0.73508686 88:0.20531912 89:1.1272827 90:0.30194509 91:0.13338569 92:0.98225462 93:0.00083363068 94:0.082496651 95:0.50536281 96:0.46914616 97:0.089602791 98:0.18793184 99:0.11246667 100:0.004621292 101:0.17218472 102:0.40720111 103:0.1373332 104:0.2520977 105:0.098475203 106:0.016416872 107:0.34182152 108:1.3575274 109:0.035714045 110:0.17804395 111:0.039450064 112:0.018285047 113:0.37167171 114:0.23053582 115:0.13165413 116:0.0003041552 117:0.30242765 118:0.68450677 119:0.46850589 120:0.38816884 121:0.11648232 122:0.82649446 123:0.39795077 124:0.7056067 125:0.0099178692 126:0.079400696 127:0.18518752 128:0.1630469 129:0.16104153 130:0.13864745 131:0.84935099 132:0.27201685 133:0.20494066 134:0.071701683 135:0.020687269 136:0.23143433 137:0.16026497 138:0.4225657 139:0.036406677 140:0.21591653 141:0.16479178 142:0.1368455 143:0.024183925 144:1.173838 145:0.059951089 146:0.26054633 147:0.82218575 148:0.0057634697 149:1.6686434 150:0.26806402 151:0.60825992 152:1.122823 153:0.13991916 154:1.2847667 155:0.18758395 156:0.25673771 157:0.2049735 158:0.73800099 159:0.0096732685 160:0.44986078 161:0.023566129 162:0.65958631 163:0.30504835 164:0.30760422 165:0.11094446 166:0.021332931 167:0.15976627 168:0.78108865 169:0.30753765 170:0.82094169 171:0.24300995 172:0.77741277 173:0.38580173 174:0.020303244 175:0.16628604 176:0.55872494 177:0.12683867 178:0.50617027 179:0.10343495 180:0.15780029 181:0.39896998 182:0.23220427 183:0.88705575 184:0.44043007 185:0.17892841 186:0.19252093 187:2.6989098 188:0.64938599 189:0.16719335 190:0.51802546 191:0.30386886 192:0.16128439 193:0.049567398 194:0.41214946 195:0.15538509 196:0.011676646 197:0.092420362 198:0.35535461 199:0.31852776 200:0.11471672 201:0.23453307 202:0.41031167 203:0.57024491 204:0 205:0.32776812 206:0.76752788 207:0.12251624 208:0.36584675 209:0.012130127 210:0.46531844 211:0.39135185 212:0.088885926 213:0.29170206 214:0.31720632 215:0.06018763 216:0.087793209 217:0.03788285 218:0.020803057 219:0.39652601 220:0.054429073 221:0.72874016 222:3.0250835 223:0.29515237 224:0.18065375 225:0.12877636 226:0.034140192 227:1.2061275 228:0.025807424 229:0.091025546 230:0.028147016 231:0.0041775852 232:0.17282991 233:0.19101708 234:0.018619785 235:0.48893738 236:0.24610192 237:0.45452157 238:0.72508168 239:0.44602889 240:0.44864547 241:2.9955239 242:0.6834203 243:1.7190567 244:0.19661009 245:0.0083600208 246:0.22609751 247:0.080151141 248:0.79332614 249:0.24775298 250:0.0085540982 251:0.01507228 252:0.57745987 253:0.86646307 254:0.40702945 255:0.012970822 256:0.56452888 257:0.2510868 258:0.10231137 259:0.16705811 260:1.1323702 261:0.54635859 262:0.1763588 263:0.15719497 264:0.08562196 265:0.32267457 266:0.19288002 267:0.4022274 268:0.010399721 269:0.26471213 270:0.10375804 271:0.36164176 272:0.30978131 273:0.46894345 274:0.44606623 275:0.11566392 276:0.12041029 277:0.44453532 278:1.1600926 279:2.7985351 280:0.0043225121 281:0.0051861429 282:0.13348337 283:0.052780658 284:0.19700833 285:1.586437 286:0.16638829 287:0.032819077 288:0.52246183 289:0.69442719 290:0.75491953 291:2.3543746 292:0.19089751 293:0.24435714 294:0.37144157 295:0.22711052 296:0.0020018085 297:0.30770543 298:0.010503666 299:0.22508913 300:0.18096709 301:0.18184082 302:0.33888981 303:0.075916901 304:0.0063234093 305:0.0032404477 306:0.52847672 307:0.29746002 308:0.64381611 309:0.1626654 310:0.33224016 311:0.52840728 312:1.7047627 313:0.57847583 314:0.50131226 315:0.22771896 316:0.18344906 317:0.21153617 318:0.86395901 319:0.16100584 320:0.62522119 321:0.28020364 322:0.0059032571 323:0.69881189 324:0.47567335 325:0.70043576 326:0.053251319 327:0.48068461 328:0.85416412 329:0.44988516 330:0.10584462 331:0.27082855 332:0.063105375 333:0.060918283 334:0.39170823 335:0.49450764 336:0.43290398 337:0.21540689 338:0.01461543 339:0.39883643 340:0.042107314 341:0.63525403 342:0.13224836 343:0.048666082 344:0.4627865 345:0.29256904 346:1.3833925 347:0.01404471 348:0.82684916 349:0.070930302 350:0.17391701 351:0.11141472 352:0.20442635 353:0.027524594 354:0.25864059 355:0.29058439 356:1.119155 357:0.81717843 358:0.0019978448 359:0.05271364 360:1.2197398 361:0.43549061 362:0.13316484 363:0.81758535 364:0.026800973 365:0.5493415 366:0.039833393 367:0.13102311 368:0.0058708745 369:0.25245517 370:0.70087582 371:0.28549853 372:0.4653669 373:0.010002087 374:0.086691089 375:0.084180512 376:0.21111909 377:1.3685365 378:0.1985784 379:1.119963 380:0.09655086 381:0.03862663 382:0.88900429 383:0.046148553 384:0.95965612 385:0.047097299 386:0.74821341 387:0 388:0.42383423 389:0.13951805 390:0.92296928 391:0.175909 392:0.10647748 393:0.33201304 394:0.0059019374 395:0.0027379859 396:0.45255414 397:0.15092318 398:0.47193897 399:0.77663839 400:0.26590374 401:0.30022597 402:0.14797719 403:0.031249337 404:0.2496279 405:0.088088669 406:0.021216558 407:0.059259165 408:0.16875537 409:0.018454205 410:0.11392369 411:0.44665706 412:0.083841614 413:0.13250643 414:0.042308941 415:0.11236058 416:0.15426217 417:0.60568249 418:0.59465367 419:1.8781817 420:0.68793243 421:0.42022631 422:0.23540337 423:0.86435026 424:0.87348592 425:0.81472856 426:0.74859387 427:1.6355385 428:0.48993996 429:0.1429984 430:0.024490848 431:1.8250641 432:0.285348 433:0.0027640651 434:0.008320719 435:0.01495835 436:0.049131285 437:0.17429632 438:0.63959211 439:0.050508935 440:0.43046716 441:0.0050654341 442:0.14518794 443:0.11066791 444:0.2057571 445:0.39329863 446:0.94035828 447:0.13436893 448:0.024671325 449:0.81651026 450:0.22086318 451:0.33342296 452:0.03060106 453:0.017625377 454:0.14830481 455:0.046776231 456:0.18834828 457:0.022035735 458:0.084957696 459:0.021707324 460:0.36845934 461:0.095483467 462:0.30237174 463:1.5681566 464:0.82052892 465:0.3820146 466:3.4982784 467:0.68582523 468:0.23352993 469:0.38519695 470:0.32117808 471:0.025007518 472:0.02019478 473:1.3749396 474:0.34283459 475:0.59816325 476:0.076583035 477:0.92238134 478:0.59584689 479:0.059010141 480:0.15055205 481:0.35899815 482:0.020630609 483:0.20061737 484:0.60096109 485:0.41238204 486:0.35467339 487:0.32199922 488:0.010819625 489:0.43185222 490:0.94324505 491:0.16323215 492:0.10918272 493:0.08726836 494:0.018556681 495:0.12060712 496:0.45296875 497:0.10848821 498:0.11511657 499:0.58232117 500:0.25784624 501:0.29591802 502:1.1526312 503:0.046631828 504:0.0029403279 505:0.052312579 506:0.070543014 507:0.11700647 508:0.1152782 509:0.1990349 510:0.44512001 511:0.18669033 512:0.46770802 513:0.45473817 514:0.11196253 515:0.28917518 516:0.12510991 517:0.63954014 518:0.89913827 519:0.12780064 520:0.00027498967 521:0.068848416 522:0.23078926 523:0.41662076 524:0.69330657 525:1.1206021 526:0.091701426 527:0.028567756 528:0.29433694 529:0.085939474 530:0.24108502 531:0.0063224216 532:0.13187768 533:0.1716179 534:1.6126485 535:0.072628662 536:0.33697808 537:0.15777336 538:0.22285385 539:0.10064142 540:1.0280174 541:0.46294245 542:0.29942727 543:0.53625798 544:1.0161418 545:0.22500116 546:0.99477494 547:0.36780673 548:0.19489355 549:0.21986161 550:0.50674856 551:0.19629358 552:0.39527133 553:0.15668501 554:0.11273066 555:0.29165566 556:0.50617558 557:0.57851011 558:0.10579321 559:0.25579095 560:0.55525762 561:0.69951224 562:0.32931116 563:0.27859312 564:0.68756461 565:0.01626222 566:0.22915815 567:2.0193095 568:0.31299827 569:0.13650422 570:0.39794227 571:0.090823025 572:0 573:0.57096463 574:0.22987857 575:0.21519251 576:0.020106088 577:0.21114683 578:0.024839895 579:0.012785286 580:0.19860002 581:0.1361841 582:0.17231816 583:0.034090318 584:0.61471117 585:0.1554759 586:0.13868153 587:0.46775067 588:0.022130542 589:0.95867825 590:0.55402714 591:0.22531077 592:0.19857654 593:0.13409892 594:0.078014247 595:0.01841815 596:0.72163361 597:0.54000407 598:0.23129311 599:0.32209837 600:0.1507622 601:0.026035197 602:0.027879294 603:0.94152415 604:0.031861443 605:0.24065329 606:1.9902738 607:0.31740263 608:0.49622095 609:1.0192741 610:0.73113155 611:1.1498824 612:0.80744779 613:0.15212351 614:0.14377297 615:0.2070193 616:0.0014738197 617:1.8152239 618:0.44331834 619:0.33918259 620:0.1420131 621:0.18158343 622:0.052582551 623:0.30574754 624:0.71679586 625:0.43978697 626:0.18015222 627:1.5398432 628:0.36165273 629:0.063713871 630:0.27891934 631:0.049338166 632:0.47543135 633:0.14454202 634:0.22625226 635:0.18604103 636:0.18476798 637:0.17906407 638:0.53285533 639:0.12661588 640:0.24151078 641:0.038701288 642:0.085518755 643:0.41255632 644:0.15171744 645:0.74614382 646:0.4823586 647:0.23067968 648:0.00036455234 649:0.13379009 650:0.20125403 651:0.32196033 652:0.30387017 653:0.0069411066 654:0.62834126 655:0.63633841 656:0.77467787 657:0.17728586 658:0.25095087 659:0.37426883 660:0.33718747 661:0.028257594 662:0.076590955 663:0.11380088 664:0.25355256 665:0.083794564 666:0.21164954 667:0.30745128 668:0.28638852 669:1.0297545 670:0 671:0.0021981071 672:0.25067246 673:0.24931757 674:0.39972812 675:0.048076686 676:0.017465778 677:0.57561988 678:0.34212041 679:0.42697003 680:0.69215035 681:0.23662804 682:0.38591015 683:0.16531043 684:0.17869666 685:0.74854809 686:0.3457087 687:0.31969011 688:0.013245515 689:0.48429692 690:1.4135457 691:0.037444957 692:0.56263959 693:0.32197332 694:2.9748651e-05 695:0.24179094 696:0.53185689 697:0.12656535 698:0.24835524 699:0.12184563 700:0.01465495 701:0.84057575 702:0.19431584 703:0.58931649 704:0.50196683 705:1.0420268 706:0.6428206 707:0.067113765 708:0.03272637 709:0.4130038 710:0.3052597 711:0.92583871 712:0.11147144 713:0.092330337 714:0.0002310103 715:0.15059216 716:0.13048238 717:0.077396616 718:0.10002203 719:0.091161959 720:0.058563981 721:0.15151402 722:0.37717316 723:0.77686411 724:0.81350172 725:0.51822567 726:0.013739041 727:0.17655769 728:0.41213089 729:0.15495625 730:0.71775627 731:0.030880462 732:0.038575348 733:0.082636647 734:0 735:0.38534531 736:2.2013254 737:0.058944974 738:0.13667275 739:0.014514539 740:0.43271548 741:0.24414816 742:0.73957312 743:0.0026345272 744:0.27218375 745:0.066864111 746:0.12370041 747:0.0040699681 748:0.123671 749:0.42274958 750:0.13668679 751:0.014128335 752:0.23299855 753:0.1262179 754:0 755:0.18130043 756:0.065349497 757:0.25208902 758:0.25962996 759:0.026195401 760:0.87953693 761:0.319594 762:0.31918398 763:0.13945673 764:0.2124946 765:0.4202525 766:0.19557762 767:1.2397826 768:0.13084304 769:0.013738546 770:1.865995 771:0.13779442 772:0.21371055 773:0.16855043 774:0.6234709 775:0.11844302 776:0.016638855 777:0.36037436 778:0.50605363 779:0.65455037 780:0.090727493 781:0.2434735 782:0.97259283 783:0.11421654 784:0.86910832 785:0.17251341 786:1.2058446 787:0.15595017 788:0.20103584 789:1.1355559 790:0.039164003 791:0.8425709 792:0.77626771 793:0.04365918 794:0.16157037 795:0.54334372 796:0.13570122 797:0.54601437 798:0.099088199 799:0.82498384 800:0.238626 801:0.082283087 802:0.22185463 803:0.085948341 804:0.16605291 805:0.96879947 806:0.10626979 807:0.16686602 808:0.43859762 809:0.11637285 810:0.73504543 811:0.88840687 812:0.13241646 813:0.57515568 814:0.066500753 815:0.12565081 816:1.1427813 817:0.1005829 818:0.48595926 819:0.06865906 820:0.82166088 821:0.061093308 822:0.20717973 823:1.3272768 824:0.13392098 825:0.83223224 826:0.50792944 827:0.32564068 828:0.72872019 829:0.49982366 830:0.16775653 831:0.067522906 832:0.053199202 833:0.65833902 834:0.023955084 835:0.34160009 836:1.0572021 837:0.52118307 838:0.0066258297 839:0.1230602 840:0.26366848 841:0.47991589 842:0.11773549 843:0.012469077 844:0.75780958 845:0.034045514 846:0.059213452 847:0.015563373 848:0.4103719 849:0.16365206 850:0.16971681 851:0.4478927 852:0.75377935 853:0.26719728 854:0.091676332 855:0.45957571 856:0.16040173 857:0.20861277 858:0.14743763 859:0.52256578 860:0.1255818 861:0.38182214 862:0.37794611 863:0.041640237 864:0.0021064191 865:0.5750882 866:0.22644508 867:0.26177734 868:0.46901312 869:1.976782 870:0.35158634 871:0.0011127561 872:0.024854084 873:2.2883136 874:0.064099565 875:0.20328872 876:1.4010668 877:0.17944399 878:0.74077404 879:0.017959025 880:0.027935473 881:0.87581682 882:0.3354452 883:0.46972173 884:0.017098777 885:0.065253019 886:0.8726148 887:0.9433856 888:0.095270954 889:0.57853734 890:0.95479584 891:0.8839007 892:0.02152328 893:0.38684779 894:0.015665142 895:1.3274531 896:0.2182855 897:0.14144175 898:0.69209701 899:0.19098733 900:0.14206907 901:0.054876868 902:0.150159 903:0.15822354 904:0.84020525 905:0.15467298 906:1.1373547 907:0.49568257 908:1.6235549 909:0.17272538 910:0.029811407 911:1.054556 912:1.5424502 913:0.22301117 914:0.1730233 915:0.44471055 916:0.061712544 917:0.081756495 918:0.45174554 919:0.022428794 920:0.29080883 921:0.009290929 922:0.16179968 923:0.010550224 924:0.20871983 925:0.54273134 926:0.0059184451 927:0.23940623 928:0.30896571 929:0.080550984 930:0.024230417 931:0.052988086 932:0.10106818 933:0.11198604 934:0.15181705 935:0.063750982 936:0.37864277 937:0.052556138 938:0.1939183 939:0.28864744 940:0.0068657701 941:0.42177784 942:0.42916915 943:0 944:0.72699112 945:0.15938233 946:0.10489958 947:0.16416869 948:0.14244266 949:0.0013766611 950:0.51600188 951:0.22637008 952:0.29238549 953:0.043536503 954:0.15854238 955:0.17795157 956:0.14411035 957:0.014149572 958:0.5155338 959:0.42823836 960:0.37663847 961:1.3400792 962:0.38883162 963:0.28933874 964:0.14679454 965:0.29368344 966:0.26858893 967:0.12347404 968:0.10147423 969:0.071637221 970:0.034749694 971:0.039398704 972:0.019980684 973:0.10174531 974:0.31321543 975:0.0049821828 976:0.088864692 977:0.30298242 978:0.047955737 979:0.80536216 980:1.0521458 981:0.73696595 982:0.21520624 983:0.22716011 984:0.10648229 985:0.98964286 986:0.75712878 987:0.0044081653 988:1.3903571 989:1.4240842 990:0.35670415 991:0.0735723 992:0.18458246 993:0.045814328 994:0.098785222 995:0.050675206 996:0.09596923 997:0.014771868 998:0.1423776 999:0.07714548 1000:0.24249738 1001:0.15136108 1002:0.84008676 1003:0.021191256 1004:0.36115581 1005:0.23579752 1006:1.5663255 1007:1.0017356 1008:0.37951422 1009:0.0096995523 1010:0.028587796 1011:0.025113527 1012:0.13630132 1013:0.16473408 1014:0.032917265 1015:0.4440448 1016:0.030796561 1017:0.043210525 1018:0.69905037 1019:1.9933817 1020:1.7570025 1021:0.085837409 1022:0.41324896 1023:0.21480496 1024:0.4152002 1025:0.42750651 1026:0.08489272 1027:0.90736365 1028:0.25619888 1029:0.26543069 1030:0.11716463 1031:0.1506242 1032:0.23646304 1033:0.070132926 1034:0.062918223 1035:0.14762172 1036:0.24219559 1037:0.67646486 1038:0.19038157 1039:0.5154506 1040:0.078189082 1041:0.48750567 1042:0.61358869 1043:0.0067522884 1044:0.24709074 1045:0.15115258 1046:0.26484013 1047:0.14780089 1048:0.51098233 1049:0.45620564 1050:3.2222157 1051:0.12100884 1052:0.64087504 1053:0.21177685 1054:0.12083746 1055:0.33598343 1056:0.25107586 1057:0.57714152 1058:0.46645463 1059:0.095422804 1060:0.25701088 1061:1.0180422 1062:0.11509675 1063:0.29500702 1064:0.31231833 1065:0.16469818 1066:0.10145754 1067:1.2261995 1068:0.46025619 1069:0.40188426 1070:0.023714771 1071:0.2538527 1072:0.28532535 1073:0.28587645 1074:0.31949073 1075:0.024469141 1076:0.20700577 1077:0.14583838 1078:0.8812086 1079:0.12670596 1080:1.392542 1081:0.09022513 1082:0.10258781 1083:0.20979927 1084:0.40586573 1085:0.19254929 1086:0.52530086 1087:0.050012939 1088:0.68587446 1089:0.17493829 1090:0.90788352 1091:0.33207744 1092:0.40326905 1093:0.16837139 1094:0.32105592 1095:0.089393705 1096:0.80289662 1097:1.4966898 1098:0.17752428 1099:0.1945909 1100:0.12801804 1101:0.2075319 1102:0.029727945 1103:0.33826947 1104:0.46550745 1105:0.4776575 1106:0.69758898 1107:0.0047359588 1108:0.49876747 1109:0.10801599 1110:0.026989786 1111:0.43554765 1112:0 1113:0.022455374 1114:1.0420134 1115:0.0013917076 1116:0.69453251 1117:1.1768372 1118:0.34677541 1119:0.27822661 1120:0.17871007 1121:0.84488833 1122:0.79867786 1123:1.3376573 1124:0.75154173 1125:0.37740669 1126:0.93540734 1127:1.3376815 1128:0.4905161 1129:0.015931794 1130:1.2944142 1131:1.1267422 1132:0.20643711 1133:0.7500115 1134:0.50866801 1135:0.3454071 1136:0.54749244 1137:0.14421673 1138:0.90787393 1139:0.54963773 1140:0.15099233 1141:0 1142:0.15576543 1143:0.32531583 1144:0.322465 1145:0.057120074 1146:0.0257346 1147:0.088858038 1148:0.71570992 1149:0.77656657 1150:0.21076338 1151:0.074787274 1152:0.49666327 1153:0.090539299 1154:0.38979697 1155:0.89337063 1156:0.25831959 1157:0.91997433 1158:0.059896681 1159:0.095023997 1160:0.048642777 1161:0.96504343 1162:0.16394313 1163:0.46366042 1164:0.015027833 1165:0.5164839 1166:0.56857508 1167:0.093843378 1168:0.41377765 1169:0.19786251 1170:0.6661337 1171:0.2480112 1172:0.28660491 1173:1.0030944 1174:0.015130031 1175:0.04122059 1176:0.1623276 1177:0.17671885 1178:0.18777698 1179:0.80719262 1180:0.12285786 1181:0.11703523 1182:0.1388943 1183:0.039228596 1184:0.024535306 1185:1.6492172 1186:0 1187:0.10369799 1188:0.27113649 1189:0.30004904 1190:0.41931674 1191:0.10108231 1192:0.054006837 1193:0.005910181 1194:0.0091114594 1195:0.17334308 1196:0.032446023 1197:1.3435494 1198:0.32001805 1199:0.057903655 1200:0.28182477 1201:0.1513402 1202:0.53302389 1203:0.074543841 1204:0.048208099 1205:0.35594168 1206:0.046835024 1207:0.14162378 1208:0.46257785 1209:1.2369717 1210:0.49446324 1211:0.092476182 1212:0.17990285 1213:0.81224978 1214:0.28797075 1215:0.13034028 1216:0.9519577 1217:0.34829053 1218:0.42210299 1219:0.10972714 1220:0.37031949 1221:0.61736602 1222:0.6102339 1223:0.09838713 1224:0.24535459 1225:0.30379173 1226:0.050900944 1227:0.011328057 1228:0.16090342 1229:0.44237149 1230:0.22847158 1231:0.30983877 1232:0.24002358 1233:0.0020445215 1234:0.085509494 1235:0.83906835 1236:1.0597011 1237:0.14245205 1238:0.32072333 1239:0.32229713 1240:0.087821543 1241:0.0065855859 1242:0.41215491 1243:0.36053574 1244:0.14812599 1245:0.13313821 1246:0.56070805 1247:0.31413954 1248:0.29753995 1249:0.17010568 1250:0.41187629 1251:0.20470184 1252:1.0283549 1253:0.15393864 1254:0.22874603 1255:0.5544042 1256:0.21152124 1257:0.025186216 1258:0.15263921 1259:0.37913737 1260:0.91436392 1261:0.11017143 1262:0.016080696 1263:0.12181032 1264:0.1308333 1265:0.44567594 1266:0.036319923 1267:0.68285429 1268:0.32455951 1269:0.56967521 1270:0.0067166211 1271:0.41468102 1272:0.13213441 1273:0.01865259 1274:0.028543564 1275:0.045398585 1276:0.30303642 1277:0.39999565 1278:0.10336632 1279:0.28814882 1280:0.29020491 1281:0.28922099 1282:0.22458169 1283:0.90215737 1284:0.0033025874 1285:0.074152566 1286:0.86635906 1287:0.13299404 1288:0.36373907 1289:0.50754571 1290:0.70386392 1291:0.057887975 1292:0.55867475 1293:0.62721139 1294:1.4578325 1295:0.51555276 1296:0.043169983 1297:0.15969309 1298:0.097864501 1299:0.36135399 1300:0.19452012 1301:2.5909348 1302:0.13892192 1303:0.26114678 1304:1.7156262 1305:0.72264433 1306:0.19606416 1307:0.2781812 1308:0.43610325 1309:0.95053697 1310:0.35654956 1311:0.26422638 1312:0.46311721 1313:0.13461971 1314:0.026603717 1315:0.66607255 1316:0.16061617 1317:1.1147178 1318:1.789192 1319:0.14369835 1320:0.055305384 1321:0.0044476804 1322:0.016659601 1323:0.57166308 1324:0.12543945 1325:0.2708306 1326:0.55204296 1327:0.32060608 1328:0.22127746 1329:0.66691345 1330:0.49195829 1331:0.26373816 1332:0.20586784 1333:0.58096147 1334:0.17706276 1335:0.095548004 1336:0.025339965 1337:0.01042492 1338:0.71050429 1339:0.27341756 1340:0.77537185 1341:0.60548848 1342:0.2426545 1343:0.11755443 1344:0.12219328 1345:0.092372924 1346:0.15683107 1347:0.068059921 1348:0.28609166 1349:0.041873708 1350:0.22080237 1351:0.056442183 1352:0.19901206 1353:0.01959409 1354:0.5885278 1355:1.1178981 1356:0.099689521 1357:0.37799254 1358:0.22138955 1359:0.055401165 1360:0.88414359 1361:0.020105774 1362:0.063459367 1363:0.10955355 1364:0.66786379 1365:0.3938548 1366:0.03174774 1367:0.19732687 1368:0.32530007 1369:0.04023423 1370:0.039755236 1371:0.036807418 1372:0.17846778 1373:0.77877271 1374:0.36176205 1375:0.89976144 1376:0.43713179 1377:0.12919632 1378:0.099434137 1379:1.6676866 1380:0.066700071 1381:0.25915885 1382:0.0040789386 1383:0.35728955 1384:1.2131815 1385:0.00056340481 1386:0.36952233 1387:0.29358768 1388:0.077352129 1389:0.23202524 1390:0.19779065 1391:0.98275238 1392:0.080971859 1393:0.20973679 1394:0.20700327 1395:0.62216103 1396:3.3440974 1397:0.62278032 1398:0.027928643 1399:0.077727646 1400:0.58081412 1401:0.22465014 1402:0.070769228 1403:0.15126184 1404:0.58460891 1405:0.025313416 1406:0.0037463915 1407:0.28324836 1408:0.10489143 1409:0.18891416 1410:0.71440214 1411:0.20474069 1412:0.55717683 1413:0.42492828 1414:0.63216674 1415:1.0018586 1416:0.50707626 1417:0.092997387 1418:0.46867847 1419:0.92618388 1420:1.4518462 1421:0.0098571535 1422:0.33887193 1423:0.11020662 1424:0.0083838385 1425:0.035180029 1426:0.82492346 1427:0.58465242 1428:0.0056345738 1429:0.18844134 1430:0.59740973 1431:0.03743761 1432:0.054763295 1433:0.58987808 1434:0.200037 1435:0.11441369 1436:0.125508 1437:0.52054524 1438:0.82341027 1439:0.41199952 1440:0.3108322 1441:0.31717834 1442:1.1562171 1443:0.061305925 1444:0.08050397 1445:0.21013717 1446:0.040851694 1447:0.41179711 1448:0.076625817 1449:1.2679896 1450:0.55808032 1451:1.0165107 1452:0.2757012 1453:0.22425775 1454:0.094500892 1455:0.25013897 1456:0.066746645 1457:0.30622056 1458:0.18500769 1459:0.19200192 1460:0.1309769 1461:1.0586051 1462:0.14084651 1463:0.17394689 1464:0.17683983 1465:0.44109637 1466:0.19679117 1467:0.43865934 1468:0.43619606 1469:0.99426228 1470:0.6548804 1471:0.59375811 1472:0.31225497 1473:0.19985856 1474:1.1318322 1475:0.69111508 1476:0.52928549 1477:0.12712879 1478:0.012238218 1479:0.53002089 1480:0.86814201 1481:0.0034523371 1482:0.59004796 1483:1.1633463 1484:0.044232372 1485:0.24447392 1486:0.13454185 1487:1.2804762 1488:0.15853721 1489:0.055599406 1490:0.49611926 1491:0.073820308 1492:0.56203115 1493:0.29431942 1494:0.016436286 1495:0.47624728 1496:0.22303158 1497:0.17406145 1498:0.37472159 1499:0.25979444 1500:0.87478524 1501:0.52274412 1502:0.64243722 1503:0.77155674 1504:0.041681912 1505:0.62422651 1506:0.30560282 1507:0.22281891 1508:0.043285325 1509:0.030436656 1510:0.24886255 1511:0.055077322 1512:0.17228508 1513:0.013773086 1514:0.23863627 1515:0.29961094 1516:0.1339995 1517:0.073115587 1518:0.23108585 1519:0.094005294 1520:0.18954365 1521:0.20856237 1522:0.23690295 1523:0.67744118 1524:0.080521911 1525:1.5654902 1526:0.3121545 1527:0.18613753 1528:0.37251046 1529:0.1087845 1530:0.26687473 1531:0.057756841 1532:0.41904673 1533:0.088690072 1534:0.0062656766 1535:0.21773224 1536:1.1043066 1537:0.68140042 1538:0.04458246 1539:0.84729141 1540:0.18411785 1541:0.11504541 1542:0.076581508 1543:0.3492789 1544:0.33563086 1545:0.47758195 1546:1.040764 1547:1.4338049 1548:0.83873582 1549:0.23513727 1550:0.22524238 1551:0.10192941 1552:0.20754334 1553:0.29900396 1554:0.41843912 1555:0.30198547 1556:0.017460715 1557:0.50157005 1558:0.10534812 1559:0.67925477 1560:0.68542594 1561:0.22230379 1562:1.0360148 1563:0.0051867631 1564:0.029049853 1565:0.032550827 1566:0.14323947 1567:0.099148974 1568:0.020667732 1569:0.18886706 1570:0.012522231 1571:0.35066196 1572:0.37934953 1573:0.71027935 1574:0.26252955 1575:0.22714259 1576:0.27634951 1577:0.51479161 1578:0.56254357 1579:0.13510683 1580:0.57727033 1581:0.63898623 1582:0.2199129 1583:0.049892545 1584:0.2254819 1585:0.10853405 1586:0.27590171 1587:0.65049529 1588:0.65490323 1589:0.28831717 1590:0.39555803 1591:0.029628662 1592:0.66371483 1593:0.72872835 1594:0.33790651 1595:0.18385278 1596:0.085231081 1597:0.37067786 1598:0.42522874 1599:0.40382418 1600:0.024699546 1601:0.026371812 1602:0.032796804 1603:0.57276875 1604:0 1605:0.38896069 1606:0.32789004 1607:1.5275983 1608:1.0126469 1609:0.036574572 1610:0.046129499 1611:0.86110103 1612:0.60653788 1613:0.19017939 1614:0.2541016 1615:0.32712495 1616:0.56341547 1617:0.098947488 1618:0.025363246 1619:0.095258594 1620:0.0070143961 1621:0.16716278 1622:0.17584555 1623:0.11740266 1624:0.44748217 1625:0.82965446 1626:0.050597355 1627:0.0043462412 1628:0.12486047 1629:0.42620289 1630:0.22123829 1631:0.061835121 1632:0.19338347 1633:0.25810304 1634:0.53573382 1635:0.074584268 1636:0.098494135 1637:0.28461421 1638:0.0075971191 1639:0.13762522 1640:0.093325496 1641:0.29824933 1642:0.64076799 1643:0.42095774 1644:0.81274086 1645:0.1128647 1646:0.79062682 1647:0.37805378 1648:0.080549426 1649:0.15327714 1650:0.41677123 1651:0.12240884 1652:0.18695068 1653:0.02865999 1654:0.83017308 1655:0.42380935 1656:1.8144511 1657:0.14303401 1658:0.0037924445 1659:0.60743058 1660:0.090108365 1661:0.38343585 1662:0.25734857 1663:0.63757724 1664:0.079128481 1665:0.030870613 1666:0.44213644 1667:1.0206698 1668:1.1813271 1669:0.028365092 1670:0.082140781 1671:0.088607289 1672:1.2582643 1673:0.24273805 1674:0.0079659745 1675:0.24230878 1676:0.071269192 1677:0.25921527 1678:0.021315886 1679:0.10176001 1680:0.008986677 1681:0.68067384 1682:0.13761987 1683:0.76683611 1684:0.59575552 1685:0.91027629 1686:0.11644596 1687:0.44081572 1688:0.035762254 1689:0.52579015 1690:0.014250976 1691:0.051504716 1692:1.0311332 1693:1.0199112 1694:0.50416791 1695:0.045505591 1696:0.26631284 1697:0.57653177 1698:0.03437914 1699:0.72293299 1700:0.35013837 1701:0.41472095 1702:0.004978939 1703:0.27735472 1704:0.50464982 1705:0.078346476 1706:0.14878252 1707:0.2984609 1708:0.83426601 1709:0.0011721365 1710:0.41621429 1711:1.0949296 1712:0.062423166 1713:0.4563075 1714:0.080106646 1715:0.16022392 1716:0.27283049 1717:0.46559313 1718:0.033217613 1719:0.15025787 1720:0.10388021 1721:0.38321227 1722:0.14398779 1723:0.20216516 1724:0.32717106 1725:0.16688196 1726:0.35825005 1727:0.027084669 1728:0.13064578 1729:0.057484996 1730:1.1867392 1731:0.50103754 1732:0.10796899 1733:0.30228931 1734:0.10373224 1735:1.1262835 1736:0.076598033 1737:0.22065119 1738:0.092471264 1739:0.069954015 1740:0.083990112 1741:0.29529813 1742:0.38417551 1743:0.68677658 1744:0.48853123 1745:0.37294084 1746:0.16882308 1747:0.1781355 1748:0.19439599 1749:0.050361887 1750:0.47499612 1751:0.60552979 1752:0.39617482 1753:0.23325479 1754:0.55446422 1755:0.17907831 1756:0.0031181232 1757:0.19956227 1758:0.10304402 1759:0.23323151 1760:0.50762874 1761:0.1883173 1762:0.053051185 1763:0.41867423 1764:0.82486117 1765:0.055318296 1766:0.67403692 1767:0.33995134 1768:0.080904461 1769:0.51057327 1770:0.18386786 1771:0.18859248 1772:1.4306067 1773:0.43106404 1774:0.005010033 1775:0.0059855068 1776:1.624455 1777:0.31391197 1778:0.16784886 1779:0.40753639 1780:0.22477029 1781:0.030163201 1782:0.11218715 1783:0.26270491 1784:0.063859142 1785:0.0098437145 1786:0.00080056809 1787:0.13219553 1788:1.1253036 1789:0.084539637 1790:0.23677893 1791:0.39346078 1792:0.12654684 1793:0.46902892 1794:0.076402023 1795:1.0989308 1796:0.2182056 1797:1.5632291 1798:0.8431865 1799:0.001124301 1800:0.027884301 1801:0.42502689 1802:0 1803:0.00022758973 1804:0.2561363 1805:0.27068332 1806:0.45700684 1807:1.909122 1808:0.19303897 1809:0.41522223 1810:0.044272128 1811:0.051582217 1812:0.30724031 1813:1.2429065 1814:0.1844361 1815:1.3375976 1816:0.016552191 1817:0.0070264703 1818:0.11461473 1819:0.0086676795 1820:0.13655098 1821:0.029587854 1822:0.62392169 1823:0.044913583 1824:0.50908786 1825:0.5710386 1826:0.14287268 1827:0.042145014 1828:0.19968849 1829:0.024004526 1830:0.75844216 1831:0.11357836 1832:0.1175032 1833:0.20044747 1834:0.3402769 1835:0.83627957 1836:0.43982199 1837:0.17412719 1838:0.23530537 1839:0.54983956 1840:0.071290366 1841:0.54933178 1842:0.2778818 1843:0.025411226 1844:0.46937534 1845:0.9597795 1846:0.71686453 1847:1.6065253 1848:0.43602186 1849:0.028846821 1850:0.077441722 1851:0.30276203 1852:0.50282043 1853:0.35756448 1854:0.41079435 1855:0.8442322 1856:0.57125419 1857:0.5871222 1858:0.63284916 1859:1.2595348 1860:0.16963981 1861:0.023608811 1862:0.45489457 1863:1.8969835 1864:0.50309825 1865:0.19228435 1866:0 1867:0.34871641 1868:0.0586343 1869:0.06682393 1870:0.40782031 1871:0.44804206 1872:0.28533006 1873:0.14143305 1874:1.0564989 1875:0.19023287 1876:0.21490924 1877:0.081946641 1878:0.052655812 1879:0.3997274 1880:0.83336717 1881:0.03630656 1882:0.21755533 1883:0.2748864 1884:0.276445 1885:0.10391808 1886:0.13005005 1887:1.0552354 1888:0.1311496 1889:0.56982845 1890:0.34091985 1891:0.77251899 1892:0.0085507603 1893:0.026323438 1894:0.057314739 1895:0.00088482013 1896:0.57090116 1897:0.18095239 1898:0.14008309 1899:0.90592283 1900:0.11003075 1901:0.066087335 1902:0.36899349 1903:0.4495036 1904:0.058578223 1905:0.32171392 1906:0.087863475 1907:0.45198223 1908:0.062364597 1909:0.17644146 1910:0.2891154 1911:0.42176381 1912:0.18550844 1913:0.04092589 1914:1.4841324 1915:0.60289341 1916:0.10777257 1917:0.014990596 1918:1.1303691 1919:0.25291181 1920:0.1087428 1921:0.040043131 1922:0.13336714 1923:0.47752869 1924:0.16323327 1925:0.097587913 1926:0.080689356 1927:0.26413476 1928:0.37459689 1929:0.39091012 1930:0.19651997 1931:0.010211699 1932:0.15679505 1933:0.0043793241 1934:0.37826976 1935:0.1462891 1936:0.32462859 1937:1.715121 1938:0.14829476 1939:0.099994726 1940:0.13091968 1941:0.52003032 1942:1.5467794 1943:0.11908501 1944:0.27243891 1945:0.029282724 1946:0.82406896 1947:0.034712136 1948:0.28790468 1949:0.0033516183 1950:0.063824445 1951:0.04372374 1952:0.41058391 1953:1.5362382 1954:0.054484144 1955:0.082160376 1956:0.39358357 1957:0.075381845 1958:0.047585603 1959:0.75744027 1960:1.9297537 1961:0.088593163 1962:0.036043234 1963:0.46639398 1964:0.050098758 1965:0.041076392 1966:0.76499641 1967:0.022739064 1968:1.1600504 1969:0.3540203 1970:0.11659253 1971:0.18889046 1972:0.38856614 1973:0.59244597 1974:0.0015685163 1975:0.49025616 1976:0.82403094 1977:0.13267992 1978:0.019696478 1979:0.0034190798 1980:0.011540251 1981:0.012338458 1982:0.60722148 1983:0.2883358 1984:0.41935 1985:0.52819264 1986:0.021192504 1987:0.46553549 1988:0.21702291 1989:1.007141 1990:1.7729391 1991:0.42694834 1992:0.004782497 1993:0.025593877 1994:0.063767552 1995:0.57731092 1996:0.21733773 1997:0.33658725 1998:0.25608307 1999:0.05662008 2000:0.13959078 2001:0.27085656 2002:0.64152515 2003:0.027250187 2004:0.48637486 2005:0.38907972 2006:0.21017604 2007:0.03826775 2008:0.14519687 2009:0.19296573 2010:0.6593774 2011:0.5569393 2012:0.05051345 2013:0.067736924 2014:0.09166503 2015:0.1150229 2016:0.16133569 2017:0.040897489 2018:0.15065409 2019:0.63327217 2020:0.15213196 2021:0.15077275 2022:0.011490999 2023:0.65432209 2024:0.25751019 2025:0.29473799 2026:0.39974168 2027:0.098354019 2028:0.27938074 2029:0.91908872 2030:0.28770068 2031:0.24169524 2032:0.47847691 2033:0.24952689 2034:0.44618091 2035:0.020922337 2036:0.1474928 2037:2.4829624 2038:0.27948481 2039:0.39854842 2040:0.49712449 2041:0.38018703 2042:0.37483126 2043:0.021069819 2044:0.041935287 2045:0.24918778 2046:0 2047:0.42025772 
-0.0005264810858036807 0:0.4250904 1:0.2552371 2:0.29546341 3:0.02361103 4:0.095267043 5:0.047549326 6:0.082634293 7:0.036936738 8:0.38855743 9:0.015684199 10:0.11177563 11:0.050416429 12:1.1561347 13:0.096895501 14:0.0097635444 15:0.020297864 16:0.086207211 17:0.1911034 18:0.61630058 19:0.85399359 20:0.86826056 21:0.71451938 22:0.54877377 23:0.21925987 24:0.056638278 25:0.0048486977 26:0.0079149436 27:0.52985615 28:0.002265651 29:0.055611312 30:1.2313859 31:0.17944235 32:0.22405659 33:0.37397882 34:0.27747884 35:0.6126101 36:0.22989911 37:0.050373126 38:0.12544517 39:0.24937022 40:0.32062134 41:0.35044098 42:0.41752157 43:0.23920876 44:0.036468919 45:0.13587052 46:0.57916713 47:0.13197942 48:0.65325481 49:0.23869549 50:0.20688444 51:0.37588564 52:3.3140109 53:0.71296751 54:0.79573572 55:0.024493257 56:1.209365 57:0.09681575 58:1.1869985 59:1.0781527 60:0.24126939 61:0.10254829 62:0.025545878 63:0.043768488 64:0.2097649 65:1.0385855 66:0.51617521 67:0 68:0.15897013 69:0 70:0.97631866 71:0.10501271 72:0.059120957 73:0.30139956 74:0.061651185 75:0.081499554 76:0.18921052 77:0.0086893449 78:0.022817368 79:0.22716148 80:0.12887849 81:0.001314154 82:0.3175948 83:0.3607201 84:0.067204297 85:0.80310321 86:0.37807775 87:0.021434549 88:0.0066026072 89:0.27517062 90:0.49671268 91:0.12174754 92:0.55949819 93:0.41222304 94:0.069231056 95:0.072936229 96:0.0025330577 97:0.045374241 98:0.017080041 99:0.052981794 100:0.44209895 101:0.090108506 102:1.2679451 103:0.58694422 104:0.25770423 105:0.024143521 106:0.17160915 107:0.032078512 108:0.7247529 109:0.0079046087 110:0.12128559 111:0.032224573 112:0.19379185 113:0.073245443 114:0.62412935 115:0.16475134 116:0.25208473 117:0.037018474 118:0.34732139 119:0.51964337 120:0.69192153 121:0.053877704 122:0.23263557 123:0.090814084 124:0 125:0.07116013 126:0.17306769 127:0.13326658 128:0.11762667 129:0.034288611 130:0.37615919 131:0.28381008 132:0.019987023 133:0 134:0.26997641 135:0.11080265 136:0.024674257 137:0.25831741 138:0.32007331 139:0.04906559 140:0.12352772 141:0.46663165 142:0.23386694 143:0.050751913 144:0.83386666 145:0.057069957 146:0.22711645 147:0.3125205 148:0.13856998 149:1.4406741 150:0.083357789 151:0.050663479 152:0.024111416 153:0.012851933 154:1.3678061 155:0.16576067 156:0.23806858 157:1.5455098 158:0.7673533 159:0.089488104 160:1.2603881 161:0.064073443 162:0.042283766 163:0.24427363 164:0.40727824 165:0.3913548 166:0.10867788 167:1.7304705 168:0.66155934 169:0.14866693 170:0.2717379 171:0.12580959 172:1.9532626 173:0.0048081973 174:0.026330115 175:0.80762446 176:0.065947242 177:0.031800147 178:1.0091311 179:0.084956363 180:0.30980793 181:0 182:0 183:0.62597376 184:0.12177052 185:0.77822125 186:0.37319922 187:0.042324349 188:1.5832626 189:0.38527501 190:0.27543569 191:0.20554453 192:0.24228047 193:0.39223525 194:0.002883784 195:0.058718886 196:0.42615414 197:0.43996894 198:0.062421139 199:0.0054124296 200:0 201:0.12097791 202:0.17975503 203:0.35011247 204:0.092552535 205:1.070902 206:0.084799685 207:0.14254583 208:0.041026056 209:0.12751393 210:0.6983434 211:0.0049885176 212:0.048220526 213:0 214:0.26988801 215:0.032380454 216:1.7307116 217:0.1113359 218:0.67046851 219:0.54197752 220:0.049766004 221:0 222:0.24765657 223:0.036552548 224:1.2475321 225:0.17413159 226:0.2472599 227:1.0553298 228:0.14725672 229:0.17956616 230:0.2956953 231:0.040404487 232:0.37298584 233:0.24602827 234:0.031749044 235:0.60901225 236:0.018735759 237:0.032105561 238:0.29971677 239:0.87737226 240:0.13175429 241:1.062372 242:0.081675567 243:0.034075957 244:0.10694268 245:0.014413746 246:0.39136198 247:0.16496171 248:1.4647132 249:0.92659122 250:0.19336879 251:0 252:0.23209459 253:0.30852035 254:0.51183164 255:0.83476007 256:0.03145453 257:0.062327411 258:0.3434906 259:0.13143243 260:0.31590134 261:0.3500461 262:0.022688471 263:0.04854757 264:0.095184617 265:0.15784909 266:0.10069944 267:0.092084982 268:0.0043101944 269:0.080806568 270:0.02674876 271:0.16124593 272:0.0063072043 273:0.22912179 274:0.8639226 275:0.12266347 276:1.6112647 277:0.52117759 278:0.76666868 279:1.6766653 280:0 281:0.45746768 282:0.50560057 283:0.12161271 284:0.013243357 285:0.28361967 286:1.5718799 287:0.13592331 288:0.4253712 289:0.50545067 290:1.996974 291:1.6704123 292:0.035125613 293:0.12478133 294:0.046940189 295:0.64594644 296:0.43457475 297:0.34930375 298:0.06624911 299:0.0420653 300:0.021845844 301:0 302:0.14670834 303:0.70703036 304:0.22832699 305:0.069328561 306:0.25647625 307:0.23884831 308:0.31474379 309:0.043342628 310:0.25444981 311:0 312:1.2890055 313:0.019568829 314:0.065865986 315:0.41359946 316:0.64543647 317:0.66509533 318:2.3187399 319:0.13400064 320:0.031481687 321:1.0882958 322:0.1006384 323:0.84310031 324:0.18728918 325:0.32128695 326:0.24910001 327:0.79502541 328:1.1540537 329:0.65987861 330:0.36091658 331:0.75567687 332:1.4462227 333:0.060642943 334:0.11321445 335:0.064726293 336:0.3538636 337:0.27977243 338:0 339:0.0068548955 340:0.15082107 341:0.48446187 342:0.65834856 343:1.2347639 344:1.1537359 345:0.036225177 346:0.080407843 347:0.63448906 348:0.17731421 349:0.1563383 350:0.13675059 351:1.8183985 352:0.2011909 353:0.21179584 354:0.095929056 355:0.16791989 356:0.80544764 357:0.17737274 358:0.015785757 359:0.20330666 360:1.311147 361:0.86621153 362:0.011628447 363:0.59604245 364:0.0016505877 365:0.14343803 366:0.46766388 367:0.63296437 368:0 369:0.035129629 370:1.0186315 371:0.44066402 372:0.65096891 373:0.031818181 374:0.17195767 375:0.015376437 376:0.20290942 377:0.57076722 378:0.83690953 379:0.035600811 380:0.28302434 381:0.67629427 382:0.22344239 383:0.035306741 384:0.58733487 385:0.31539053 386:0.99839562 387:0.69163948 388:1.0518856 389:0.51260185 390:0.18959771 391:0.013637976 392:0.063117549 393:0.019210113 394:0.19649354 395:0.002683775 396:1.0097861 397:0.041716743 398:0.067383014 399:1.2881641 400:1.3658086 401:0.068315953 402:0.01895937 403:0.24527468 404:0.13557027 405:0.27129108 406:0.0018163518 407:0.14927833 408:0.19581693 409:0.0090444218 410:0.0018304005 411:0.082928829 412:1.023594 413:0.014608242 414:0.13033129 415:0.20165323 416:0.077376693 417:0.16394514 418:0.51878572 419:1.7523171 420:0.0044265538 421:0.14901537 422:0.32220027 423:0.27333704 424:0.29484469 425:0.89119935 426:1.1775682 427:0.18131688 428:0.1933112 429:0.1708066 430:0.039115828 431:0.53835177 432:0.33269945 433:0 434:0.009482014 435:0.50900453 436:0.0096932892 437:0.1296839 438:0.61845332 439:0.013405157 440:0.45564613 441:0.00026654449 442:0.23305702 443:0.41450658 444:0.050560687 445:0 446:1.1492534 447:0.1118818 448:0.039476268 449:0.16652781 450:0.048477031 451:0.23246749 452:0.0055409153 453:0.096041396 454:0.0029598395 455:0.065998457 456:0.40918466 457:0.067059994 458:0.15490398 459:0.080873616 460:0.060991429 461:0.23210643 462:0.037964962 463:2.3637505 464:0.32456443 465:0.55959874 466:1.0565716 467:1.476081 468:0.28454682 469:0 470:0.1235699 471:0.24287239 472:0.066159897 473:0.2078439 474:0.70484209 475:0.22085966 476:0.17904919 477:0.49148262 478:0.011167741 479:0.33615139 480:0.052717801 481:0.11445551 482:0.035991486 483:0.088507533 484:0.080477439 485:0.24824108 486:0.019910682 487:0.4114812 488:0.45049673 489:1.2190939 490:0.42776799 491:1.1910588 492:0.60356957 493:0.0022363637 494:0.1663238 495:0.25782502 496:0.12182526 497:0.30898252 498:0.14618349 499:0.2691175 500:0.62575108 501:0.96418965 502:1.8094809 503:0.018119834 504:0.32628629 505:0.45664117 506:0.0032214115 507:0.035103898 508:0.010852174 509:0.0040859203 510:0.0027065536 511:0.25548288 512:0.82040995 513:0.72851998 514:0.009326729 515:0.78606832 516:0.037638232 517:0.71478271 518:0.046699561 519:0.065162785 520:0.10554879 521:0.13169506 522:0.15334217 523:0.14716697 524:0.0088316649 525:0.84851718 526:0.076921605 527:0.0033652158 528:0.15547206 529:0.05135173 530:0.033907067 531:0.012249701 532:0.16748467 533:0.60007942 534:0.50705421 535:0.068136498 536:0.021113578 537:0.082884006 538:0.088921465 539:0.25758067 540:0.91449219 541:0.065403454 542:0.0010882393 543:0.1947649 544:0.043321755 545:0.19119722 546:0.89363563 547:0.0061555812 548:0.11835621 549:0.39259762 550:0.82959044 551:0.21239677 552:0.94317716 553:0.00018425621 554:0.68582869 555:0.35970134 556:0.43590343 557:1.5681763 558:0.063514367 559:0.030811088 560:0.016146552 561:0.56509078 562:0.33878177 563:0.090202942 564:0.17187165 565:0.12208927 566:0.092849903 567:1.3563712 568:0.48854193 569:1.1620365 570:0.18776749 571:0.0514802 572:0.47466481 573:0.084486686 574:0.1150022 575:0.90645713 576:0.52293915 577:0 578:0.28398475 579:0.44022816 580:0.92438209 581:0.059237361 582:0.00043213929 583:0.10310341 584:2.9263878 585:0.081014283 586:0.036430255 587:0.03510261 588:0.00044576183 589:0.10958853 590:0.45055401 591:0.020717323 592:0.014130531 593:0 594:0.0034647279 595:0.19838646 596:0.72492868 597:0.94815511 598:0.013581384 599:0.013029783 600:0.13405697 601:0.31540367 602:0.054948233 603:0.63000458 604:0.028531482 605:0.21160515 606:1.0421755 607:0.42345622 608:0.053371333 609:0.033274017 610:0.076571487 611:0.49280593 612:0.23966606 613:0.21482456 614:0.52290887 615:0.0047440873 616:0.35911232 617:3.4017622 618:0.6478616 619:0.011297235 620:0.086987458 621:0.1150289 622:0.30564955 623:0.077570371 624:0.011953013 625:0.055729914 626:0.19819948 627:0.097983293 628:0.50372553 629:0.71285856 630:0.12359828 631:0.15938742 632:2.0866506 633:1.6113698 634:0.12132277 635:0.20435455 636:0.051739972 637:0.040479347 638:0.61012393 639:0.021215312 640:0 641:0.14359395 642:0.2367053 643:0.13686535 644:0.21297996 645:1.1240205 646:4.8750544 647:0.13893974 648:0.13335352 649:0.25972816 650:0.29799244 651:0.39688051 652:0.34589201 653:0.79182917 654:1.1108286 655:0.22900781 656:0.088611059 657:0.29292187 658:0.0055543403 659:0.014151455 660:0.94609237 661:0.078072734 662:0 663:0.10032358 664:0.14185053 665:0.15403473 666:0.2753686 667:0.6614548 668:0.24529071 669:0.89830989 670:0 671:0.17911677 672:0.069117062 673:0.45561662 674:0.90681303 675:0.8213138 676:0.36972174 677:0.67123449 678:0.6031087 679:0.99769503 680:0.17243849 681:0.66067868 682:0.12183324 683:0.034302562 684:0.28334695 685:0.01684501 686:0.19393842 687:0.27253449 688:0.061472505 689:0.056135766 690:0.48607525 691:0.10121276 692:0.25322375 693:0.0041625747 694:0.1350643 695:0.085582294 696:1.252079 697:0.50115979 698:0.25344503 699:0.014094367 700:0.057325475 701:0.3211478 702:0.83503634 703:0.82806534 704:0.11475411 705:0.30446696 706:0.098419704 707:0.35758594 708:0.34745485 709:0.10945461 710:1.1200505 711:0.40824589 712:0.045037381 713:0.072208248 714:0.054431506 715:0.63047272 716:0.53852952 717:0.38814113 718:0.060275618 719:0.20336185 720:0.065066919 721:0.072429352 722:0.54556435 723:0.53102368 724:0.11516821 725:0.6554383 726:0.052599892 727:0.22773524 728:0 729:0.20903657 730:1.2003497 731:0.14865842 732:0 733:0.028450552 734:0.19344205 735:0.038069662 736:0.34140334 737:0.018084608 738:0.017858114 739:0.16305654 740:0.40886414 741:0.070018977 742:0.17669521 743:0.13746065 744:0.046910316 745:0.10961937 746:0.0067326888 747:0.016658384 748:0.52648193 749:0.20684887 750:0.017241143 751:0.22916356 752:0.73170877 753:0.1021238 754:0.53035617 755:1.6737294 756:0.11162804 757:0.47953346 758:0.069990709 759:0.089372739 760:0.1211403 761:0.0016406865 762:0.90380734 763:0.010017756 764:0.54744995 765:0.075659968 766:1.1390795 767:2.3120952 768:0.033391971 769:0.027978841 770:0.52035111 771:0.3081108 772:0.073224291 773:0.2518414 774:0.72534895 775:0.052126884 776:0.034932062 777:0.18190207 778:0.53343308 779:0.52614969 780:0.3750346 781:0.3275159 782:0.13619883 783:0.49846911 784:0.36028063 785:0.051883854 786:0.24527304 787:0.50738329 788:0.38584611 789:0.9002617 790:0.091109276 791:0.59275711 792:0.19691429 793:0.029682864 794:0.069687016 795:0.55569315 796:0.18482934 797:0.23948054 798:0.043975867 799:0.8217032 800:0.22323732 801:0.01800045 802:0.11260584 803:0.1203585 804:0.50815201 805:0.11201305 806:0.25812274 807:0.72787994 808:0.22541898 809:0.29549882 810:0.12319204 811:0.024071416 812:0.19808455 813:0.23798084 814:0.34476358 815:0.051909067 816:0.54686558 817:0.092666149 818:0.54643881 819:0.49906579 820:0.13478756 821:0.10123667 822:0.064607993 823:0.19372469 824:0.32958233 825:0.10539316 826:0.059005138 827:0.14289217 828:0.066559136 829:0.36415702 830:0.19145447 831:0.0004731222 832:0.041621659 833:0 834:1.445466 835:0.9449439 836:0.013170071 837:0.051431704 838:0.048185386 839:1.5187368 840:0.064999953 841:0 842:0.30535716 843:0.17679834 844:0.045675911 845:0.023453481 846:0.11676046 847:0.0013362172 848:1.122759 849:0.079676002 850:1.2885894 851:0.084023096 852:0.087566547 853:0.011839195 854:0.12326632 855:0.55416346 856:0.25112075 857:0.25003093 858:0.21833731 859:0.013549567 860:0.15062062 861:1.2209172 862:0.67897528 863:0.47829351 864:0.61221164 865:0.65618324 866:0.25545132 867:0.31786042 868:0.14045912 869:0.41566241 870:0.87789798 871:0.27684 872:0.43838444 873:0.048360318 874:0.059273846 875:0.39683697 876:0.62142503 877:0.14157735 878:0.62270415 879:0.16998014 880:0.20904142 881:0.058201157 882:0.09961272 883:0.10472065 884:0.16726521 885:0.13605821 886:0.9709689 887:0.16197626 888:0.003819772 889:0.10325775 890:0.16141324 891:0.32740051 892:0.14955109 893:0.24989785 894:0.0039834976 895:5.2864461 896:0.4990755 897:0.32697108 898:1.6185002 899:0.28891137 900:0 901:0.17727597 902:0.45197201 903:0.10255381 904:0.23957816 905:0 906:0.46877 907:0.047418449 908:0.17148718 909:0.17132786 910:0.057429556 911:0.76168913 912:0.45021266 913:0.30548808 914:0.14564803 915:0.092946596 916:0.38219023 917:0.0051430073 918:0.0050557679 919:0.15210813 920:0.050471004 921:0.044882048 922:0.026686018 923:0.077525429 924:5.2813535 925:0.31960404 926:0.020059578 927:0.24520664 928:0.016507618 929:0.025797833 930:0 931:0.10113301 932:0.73290718 933:0.44333205 934:0.16935623 935:0.0051650326 936:0.0069048316 937:0.11918001 938:0.0092671439 939:0.035203546 940:0 941:0.080255643 942:0.66398853 943:0.23673666 944:0.22513507 945:0.11684924 946:0.24151309 947:0.4070085 948:0 949:1.1427957 950:0.66494 951:0.33496469 952:0.6371128 953:0.51853162 954:0.12559985 955:0.17762604 956:0.0014476827 957:0.028933967 958:0.15076376 959:1.0974106 960:0.060346875 961:0.067418963 962:0.41039029 963:0.24241269 964:0.013457444 965:0.033916075 966:1.1756251 967:0.34942451 968:0.017800802 969:0.058063015 970:0 971:0.075287521 972:0.3107729 973:0.033711128 974:0.47824961 975:0.03844082 976:0.02548008 977:0.75647199 978:0.11999726 979:0.4349474 980:0.92709678 981:0.19880788 982:0.15239297 983:0.015434508 984:0.13004138 985:0.096821643 986:1.2185493 987:0.0088493442 988:0.94571161 989:1.3786194 990:0.084991276 991:0.053593539 992:0.22835179 993:0.34389994 994:0.070051603 995:0.19454411 996:0.40003794 997:0.019429384 998:0.0099363383 999:0.16955537 1000:0.1198723 1001:0.2080953 1002:0.054815628 1003:0.66543782 1004:1.249518 1005:0.012575094 1006:0.023005398 1007:0.10537791 1008:0.23942548 1009:0 1010:0.30156422 1011:0.76344204 1012:0.040813047 1013:0.067685947 1014:0.17921685 1015:0.47703832 1016:0.2946243 1017:0.20914322 1018:1.0473543 1019:0.89963561 1020:0.12034447 1021:0.062992036 1022:0.31428432 1023:0 1024:0.36543268 1025:1.1217697 1026:0.032614313 1027:0.26683626 1028:0.60553509 1029:0.21087864 1030:0.0352365 1031:0.093345962 1032:0.21050714 1033:0.016527997 1034:0.24577588 1035:0.72188824 1036:0.087657169 1037:0.22683159 1038:0.4249092 1039:0.028192842 1040:0.26609412 1041:0.54359752 1042:0.34972203 1043:0.20542869 1044:0.4015123 1045:0.30098534 1046:0.070820674 1047:0.0019031803 1048:0.16344595 1049:0.41449076 1050:0.52216768 1051:1.1477375 1052:0.31195915 1053:0.0020360041 1054:0.037482072 1055:0.004705993 1056:0 1057:0.021524392 1058:0.058645714 1059:0.023547795 1060:0.14135195 1061:0 1062:0.3434307 1063:0.50149965 1064:2.1047189 1065:0.012977553 1066:0.43831095 1067:0.95529097 1068:0.10626465 1069:0.039585844 1070:0.095645592 1071:0.53960371 1072:0.39000285 1073:0.014452903 1074:0.099316888 1075:0.10386303 1076:0.012113055 1077:0.14420396 1078:1.2460343 1079:0.10531661 1080:1.3958673 1081:0.2645843 1082:0.47059166 1083:0.27265626 1084:0.31102246 1085:0.20141597 1086:0.30272353 1087:0.12932691 1088:0.44108614 1089:0.16991928 1090:0.52312464 1091:0.2209567 1092:0.019649191 1093:0.89548326 1094:0.32932833 1095:0.079031207 1096:0 1097:0.84506816 1098:0.42004767 1099:0.41117871 1100:0.29106179 1101:0.079434685 1102:0 1103:0.60928315 1104:0 1105:0.13830909 1106:0.95963758 1107:0.14236479 1108:1.7008059 1109:0.28827712 1110:0.0038658644 1111:0.14404213 1112:0.26986057 1113:0.075584941 1114:0.011364508 1115:0 1116:0.59146893 1117:1.0244373 1118:0.033702966 1119:0.0082260938 1120:0.53699106 1121:0.092185162 1122:0.63785154 1123:0.18475288 1124:0.063089274 1125:0.15599851 1126:0.77411538 1127:1.3461946 1128:0.66078162 1129:0 1130:0.98648179 1131:0.11351737 1132:0.23255134 1133:0.19803707 1134:0.2869212 1135:0.54242599 1136:0.13966769 1137:0.3148317 1138:1.4319031 1139:0.23252502 1140:0.19036646 1141:0.009085739 1142:0.31838688 1143:0.1641418 1144:0.41263726 1145:0 1146:0.30502194 1147:0.13684212 1148:0.86062962 1149:0.14001638 1150:0.010871927 1151:0.2546688 1152:0.056477852 1153:0.010287725 1154:0.12642148 1155:0.4347761 1156:0.034058616 1157:0.36788291 1158:0.016364295 1159:0 1160:0.074339911 1161:0.48239002 1162:0.164217 1163:2.07987 1164:0.18907987 1165:0.1282302 1166:2.2121041 1167:0.13097821 1168:0.76187426 1169:0.04044028 1170:0.035427362 1171:0.17728722 1172:0.071759842 1173:1.0282176 1174:0.24251007 1175:0.2825847 1176:0.0095987003 1177:0.10061901 1178:0.35917082 1179:0.20380363 1180:0.14089249 1181:0.72840488 1182:0.49922046 1183:0.12876529 1184:0.38862324 1185:3.856246 1186:0.012451807 1187:0.17443167 1188:0.0090376586 1189:0.15502357 1190:0.34124559 1191:0.062346339 1192:0.0020554236 1193:0.94189161 1194:0.10306106 1195:0.18797387 1196:0.28263584 1197:2.1049335 1198:0.036823101 1199:0.055935293 1200:0.11538153 1201:0.027330527 1202:0.0053652073 1203:0.1750388 1204:0.14332059 1205:0.40650663 1206:0.019633619 1207:0.045288783 1208:0.31051627 1209:0.42118835 1210:0.14547017 1211:1.6056229 1212:0.42557034 1213:0.93618953 1214:0.011929637 1215:0.057134803 1216:0.7812615 1217:0.25788739 1218:0.9250527 1219:0.074187517 1220:0.25389692 1221:0.086581148 1222:0.48120847 1223:0.19375423 1224:0.32663319 1225:0.24858545 1226:0.13314332 1227:0.19587392 1228:0.0056621712 1229:0.0088181617 1230:0.14070557 1231:0.26774931 1232:0.0179669 1233:0.13753517 1234:0.016434971 1235:0.31987533 1236:0.93775231 1237:0.92213005 1238:0.2309051 1239:0.10212336 1240:0.023295864 1241:0.14532973 1242:0.24487931 1243:0.019453786 1244:0.043211732 1245:0.054007836 1246:0.19439183 1247:0.024401037 1248:0.026669648 1249:0.016292661 1250:0.090124443 1251:0.0063868212 1252:0.68011892 1253:0.58698821 1254:0.19003521 1255:0.4254888 1256:0.25101754 1257:0.088330343 1258:0.032638069 1259:0.14095806 1260:0.94989574 1261:0.43232408 1262:0.46180946 1263:0.34929943 1264:0.011738838 1265:0.15251036 1266:0.12974945 1267:0.67471296 1268:0.09547057 1269:0.31443319 1270:0.075883813 1271:0.20079142 1272:0.016010677 1273:0.010087763 1274:0.20141996 1275:0.17243403 1276:0.13095742 1277:0.013568957 1278:0.051400803 1279:0.11617471 1280:0.081264965 1281:2.3733909 1282:0.019511558 1283:0.085695125 1284:0.16407423 1285:1.778797 1286:1.398023 1287:0 1288:1.6168976 1289:0.017728088 1290:0.055578221 1291:0.80990851 1292:0.20534869 1293:0.88407648 1294:1.2441423 1295:0.001278237 1296:0.22851633 1297:0.020319711 1298:0.82231295 1299:0.69753349 1300:0.032158822 1301:0.52204496 1302:0.28968188 1303:0.12777573 1304:0.53667587 1305:0.81016225 1306:0.34555492 1307:0.29433879 1308:0.28135759 1309:0.25234044 1310:0.29492685 1311:0.6811111 1312:0.030792572 1313:0.30794209 1314:0.69684505 1315:0.068753876 1316:0.59607494 1317:0.65589029 1318:1.8987097 1319:0.085405298 1320:0.027822904 1321:0.014675894 1322:0.032606028 1323:0.42652819 1324:0.19516979 1325:0.00027021061 1326:0.1989439 1327:0 1328:0.44565904 1329:0.38172165 1330:0.54508823 1331:0.32606974 1332:0.26921842 1333:0.29968315 1334:0.03971095 1335:0.15106721 1336:0.12679587 1337:1.3063911 1338:0.39627922 1339:0.58774823 1340:0.29941791 1341:0.083997704 1342:0.34919271 1343:0.078354947 1344:0.19175306 1345:0.11668692 1346:0.073457941 1347:0.17786263 1348:0.8200928 1349:0.2649368 1350:0.25083673 1351:0.072370417 1352:0.043074705 1353:0.4398523 1354:0.13580436 1355:0.51302105 1356:0.171904 1357:0.0083788494 1358:0.2996234 1359:0.064957887 1360:0 1361:0 1362:0.3793413 1363:0.071490578 1364:0.92672616 1365:0.66309685 1366:0.017154811 1367:0.28363961 1368:0.52671796 1369:0.75578392 1370:0.056384347 1371:0.04029816 1372:0.033506192 1373:0.45108062 1374:0.14636557 1375:0.18285136 1376:0.95230442 1377:0.0010676231 1378:0.60352331 1379:0.96841508 1380:0.16653995 1381:0.069614373 1382:0.046737276 1383:0.54777384 1384:0.091457851 1385:0.88859504 1386:0.79638159 1387:0.1333216 1388:0.10170808 1389:0.017360426 1390:0.11796595 1391:0.63014191 1392:0.21464621 1393:0.18891202 1394:0.22352637 1395:0 1396:2.0212791 1397:0.4047769 1398:0.016060479 1399:0.084940374 1400:0.92050612 1401:0.098873295 1402:0.15194392 1403:0.032891333 1404:0.63317621 1405:0.0013852151 1406:0.02878188 1407:0.068894088 1408:0.3294318 1409:0.004459504 1410:0.48040491 1411:0.3854529 1412:0.13287227 1413:0.080250882 1414:0.12102804 1415:0.22184908 1416:0.18367316 1417:0.092800625 1418:0.22520186 1419:0.25000778 1420:0.47037393 1421:0.070757642 1422:0.06547261 1423:0.3691338 1424:0.051026147 1425:0.15605856 1426:1.4073294 1427:0.20569168 1428:0.25956559 1429:0.46351716 1430:1.4316549 1431:0.029477971 1432:0.082185909 1433:0.036307152 1434:0.053006161 1435:0.41484672 1436:0.18000101 1437:0.16729917 1438:0.46498272 1439:0.5590505 1440:0.25115511 1441:0.59356916 1442:0.070711084 1443:0.085072547 1444:0.28692922 1445:0.49450177 1446:0.016596815 1447:0.2563493 1448:1.8831986 1449:1.3435339 1450:0.1288524 1451:0.00074852642 1452:0.41570759 1453:0.0091586867 1454:0.063113354 1455:0.33734837 1456:1.0231862 1457:0.050730899 1458:1.0305455 1459:0.065298192 1460:0.13284254 1461:0.54783428 1462:1.1780545 1463:0.035306405 1464:0.054867927 1465:0.010871729 1466:0.062679067 1467:0.15230243 1468:0.16913448 1469:0.97402787 1470:0.060442369 1471:0.066955484 1472:1.2306668 1473:0.0017850624 1474:0.10325944 1475:0.31803104 1476:0.13818833 1477:0.074071541 1478:0.017619383 1479:0.25904006 1480:0.080924325 1481:0.066015482 1482:0.48712775 1483:0.90556341 1484:0.087824859 1485:0.036855228 1486:0.12583567 1487:0.26657817 1488:0.019384786 1489:0.52138698 1490:0.093280576 1491:0.049521256 1492:1.1479281 1493:1.5577657 1494:0.033000179 1495:0.013886 1496:0.14544679 1497:0.25719661 1498:0.027743898 1499:0.039167862 1500:0.16929899 1501:0.59499156 1502:0.091627106 1503:1.4854945 1504:0.11857887 1505:0.21948281 1506:1.1004913 1507:0.38713035 1508:0.15165754 1509:0.26376536 1510:0.008869959 1511:0.36409822 1512:0.39736658 1513:0.2012113 1514:0.01284471 1515:0.042313099 1516:0.012387025 1517:0.077475369 1518:2.7793527 1519:0.13999771 1520:0.24841499 1521:0.045090649 1522:0.0071092732 1523:0.10422459 1524:0.38413078 1525:0.19662248 1526:0.27523986 1527:0.05898983 1528:0.26508293 1529:0.32212567 1530:0.22843513 1531:0.0056850519 1532:0.29754931 1533:0.32178184 1534:0.2852158 1535:0 1536:0 1537:0.064827114 1538:0.12965278 1539:0.87464452 1540:0.086053573 1541:0.013817117 1542:0.0025713055 1543:0.40751129 1544:0.098721743 1545:0.033068828 1546:0.54742587 1547:0.56334883 1548:0.66766012 1549:1.247318 1550:0.59745544 1551:0.33837298 1552:0.23641956 1553:0.26905403 1554:0.035696499 1555:0.60242373 1556:0.031979885 1557:0.12749694 1558:0.28105912 1559:0.065040872 1560:0.10101579 1561:0.080249369 1562:0.46707004 1563:0.55417961 1564:0.049112707 1565:0.082297519 1566:0.60587412 1567:0.25093898 1568:0.30947408 1569:0.010099837 1570:0 1571:0.08149568 1572:0.054532558 1573:0.30475852 1574:0.27238905 1575:0.027452409 1576:0.041408449 1577:0.10161076 1578:0.42912966 1579:0 1580:0.0052704155 1581:0.60827368 1582:0.062935866 1583:0.089696705 1584:0.0077453959 1585:0.07965555 1586:0.44921765 1587:0.70736849 1588:0.83632386 1589:0.016824089 1590:0.099302992 1591:0.011774334 1592:0.14178027 1593:0.019990275 1594:0.52442586 1595:0.6902073 1596:1.1162012 1597:0.19799665 1598:0.84277648 1599:1.2829622 1600:0.16825072 1601:0.42909208 1602:0.58041877 1603:0.0078636883 1604:0.09266232 1605:0.4561744 1606:0.52899504 1607:1.8712814 1608:0.013013189 1609:0.045190565 1610:0.05158231 1611:1.3259125 1612:0.62949723 1613:0.12687059 1614:0.64682412 1615:0.029328445 1616:1.6386018 1617:0.073341861 1618:0.04294493 1619:0 1620:0.099772334 1621:0.0097098816 1622:0.23471546 1623:0.027418297 1624:0.086339451 1625:0.54170388 1626:0.28132349 1627:0.11599348 1628:0.11024149 1629:0.13719256 1630:0.48804972 1631:0.05015194 1632:0.03496962 1633:0.088888757 1634:0.036884818 1635:0 1636:0.11641036 1637:0.80509984 1638:0.11545051 1639:0.066194005 1640:0.28026688 1641:0.40133402 1642:0.0087472685 1643:1.0400649 1644:1.0947411 1645:0.33961478 1646:0.2902931 1647:0.017128615 1648:0 1649:0.10198431 1650:0.070879884 1651:0.024134945 1652:0.20315567 1653:0.037909791 1654:0.046427306 1655:0.17149054 1656:0.54048991 1657:0.11050478 1658:0.15529232 1659:1.1261609 1660:1.0656228 1661:0.68523699 1662:0.13935623 1663:0.45840442 1664:0.0023935097 1665:0.027420411 1666:0.73580819 1667:0.00085339189 1668:0.88124311 1669:0.13935685 1670:0.011554801 1671:0.062778011 1672:0.16019721 1673:0.10648048 1674:0.096542209 1675:0.42177817 1676:0.19529109 1677:0.24628693 1678:0.89967376 1679:0.043396521 1680:0.20290126 1681:0.59820998 1682:0.36417484 1683:0.38189727 1684:0.11353456 1685:0.5830186 1686:0.39777806 1687:0.049845122 1688:0.094137751 1689:0.63954115 1690:0.24342279 1691:0.058855493 1692:0.10527869 1693:0.32937217 1694:0.15411702 1695:1.1795224 1696:0.017614482 1697:0 1698:0.08846008 1699:1.4479517 1700:0.1161802 1701:0.28032836 1702:0.0740861 1703:0.40216881 1704:0.84455371 1705:0.35614333 1706:0.19782245 1707:0.0029154408 1708:0.12936769 1709:0.26055041 1710:0.0022321262 1711:0.67533886 1712:0.094389439 1713:0.3153396 1714:0.023668166 1715:0.49007764 1716:0.016625447 1717:0.10939347 1718:0.94874424 1719:0.178671 1720:0.07945019 1721:0 1722:0.42088324 1723:0.074563198 1724:0.73400682 1725:0.97850114 1726:0.65954512 1727:0.079090819 1728:0.01107303 1729:0.040782049 1730:0.29149148 1731:0.088696778 1732:0.025462806 1733:0.14079699 1734:0 1735:0.36372399 1736:0.40336204 1737:0.24367137 1738:1.3276473 1739:0.16130809 1740:0.45388541 1741:0.132045 1742:0.38774848 1743:0.030084562 1744:0.64326 1745:0.1594549 1746:0.12157586 1747:0.11108215 1748:0.43626407 1749:0.41377202 1750:0.23105147 1751:0.74675351 1752:0.28554615 1753:0.0012838842 1754:0.027461508 1755:0.36594138 1756:0.48534012 1757:0.46444517 1758:0.045947861 1759:0.33959863 1760:1.9950259 1761:0.0011785629 1762:0.097922005 1763:0.3016997 1764:0.24734239 1765:0.25785077 1766:0.25629416 1767:0.12470736 1768:0.05015336 1769:0.23913951 1770:1.1651428 1771:0.62518537 1772:1.4688716 1773:0.19884269 1774:0.27920416 1775:0.15828167 1776:0.27629504 1777:0.144188 1778:0.072783351 1779:0.3532351 1780:0.42406642 1781:0.48845616 1782:0.066933148 1783:0.35035107 1784:0.30290741 1785:0.10303362 1786:0.30311817 1787:0.31076795 1788:0.15585427 1789:0 1790:0.23553273 1791:0.18729223 1792:0.1939481 1793:0.054948814 1794:0.31152445 1795:1.9426266 1796:0.14068916 1797:0.060661733 1798:0 1799:0.40218842 1800:0.0022824919 1801:0.91692001 1802:0.041276585 1803:0.0018649529 1804:0.011291949 1805:0.12357073 1806:0.04717239 1807:1.8450117 1808:0.20977865 1809:0.45175147 1810:0.0081955492 1811:0.027312137 1812:0.068874277 1813:0.3299011 1814:0.23083447 1815:1.7932507 1816:0.18230027 1817:0.032882459 1818:0.046519484 1819:0.0092244279 1820:0.15617055 1821:0.3191081 1822:0.22647037 1823:0.16672082 1824:0.10472924 1825:0.07457757 1826:0.19764763 1827:0.53473824 1828:0.20126688 1829:0.16542949 1830:0.12236382 1831:0.81384104 1832:0.10210378 1833:0.29106286 1834:0.69361448 1835:0.30031165 1836:3.4572167 1837:0.37323651 1838:0.26285502 1839:0.02248363 1840:0.070442736 1841:0.084493272 1842:0.25327316 1843:0.12694581 1844:0.30559593 1845:0.42591873 1846:0.0099114198 1847:0.030261965 1848:1.0587498 1849:0.20984083 1850:0.10946929 1851:0.18200038 1852:0.0054681278 1853:0.069478773 1854:0.42962965 1855:0.82647389 1856:0.37402108 1857:0.021639094 1858:0.11561108 1859:0.11834209 1860:0.92621648 1861:0.088466056 1862:0.37606925 1863:0.56539792 1864:0.42984241 1865:0 1866:0.21697344 1867:0.17029586 1868:0.0067921006 1869:0.16953881 1870:0.00058684923 1871:0.5118683 1872:0.70211828 1873:0.023731219 1874:0.40454131 1875:0.10797809 1876:0.15790297 1877:0.33171329 1878:0.47064131 1879:0.57325053 1880:0.094181314 1881:0.55004656 1882:0.34365728 1883:0.41029039 1884:1.1658211 1885:0.40630496 1886:2.1675503 1887:0.92263794 1888:0.3446826 1889:0.055264387 1890:0 1891:0.16818863 1892:0.10806469 1893:0.085770242 1894:0.088332973 1895:1.7369647 1896:0.50786215 1897:0.19500938 1898:0.45040309 1899:1.2844239 1900:0.24297278 1901:0.10866482 1902:0.67275387 1903:0.07620284 1904:0.31044546 1905:0.25383714 1906:0.61393428 1907:0.049470555 1908:0.080990218 1909:0.02096151 1910:0 1911:0.6795429 1912:0.39587823 1913:0.30046323 1914:1.1231587 1915:1.1328516 1916:0.0035382234 1917:0.10586403 1918:0.22995438 1919:0.18249616 1920:0.47998556 1921:0.026016891 1922:0.1145116 1923:0.21458824 1924:0.37321922 1925:0.10567093 1926:0.21754798 1927:0.10329377 1928:0.099738576 1929:0.11707595 1930:0.58097953 1931:0.15324932 1932:1.0052108 1933:0 1934:0.12553501 1935:0.023832349 1936:0.042727232 1937:0.98103589 1938:0.54795218 1939:0.12106381 1940:0.050082739 1941:0.10782258 1942:0.57482189 1943:0.0097085321 1944:0.26547387 1945:0.1376507 1946:0.66873038 1947:0.030363729 1948:0.18438953 1949:0.029299721 1950:0.13692299 1951:0.28596053 1952:0.021761345 1953:1.3713191 1954:0.034616947 1955:0.054314971 1956:0.3211917 1957:0.18248749 1958:0.50505102 1959:0.32272294 1960:0.50965023 1961:0.046564326 1962:0.13322283 1963:0.43094945 1964:0.22898515 1965:0.031047961 1966:0.66726404 1967:0.10907625 1968:0.87273437 1969:0.09256392 1970:0.094725944 1971:0.00014361281 1972:0 1973:0.41104677 1974:0 1975:0.07364133 1976:1.3485469 1977:0.1621529 1978:0.012412179 1979:0.010635233 1980:0.1419767 1981:0.11378563 1982:0.014869497 1983:0.68874264 1984:0.61345565 1985:0.28902751 1986:0.077160649 1987:1.1833646 1988:0.0011547469 1989:0.39405751 1990:0.2648823 1991:0.2218101 1992:0.059317403 1993:0.15337841 1994:0.012870321 1995:0.18426247 1996:0.18185352 1997:0.59354883 1998:0.18178362 1999:0.00014804582 2000:0.4558129 2001:0.0071955249 2002:0.15912463 2003:0.021843202 2004:0.60610884 2005:0.67818981 2006:0.025580855 2007:0.089597642 2008:0.56017339 2009:0.0031049261 2010:0.20498398 2011:0.62996632 2012:0.48529208 2013:0.20013708 2014:1.213267 2015:0.4404119 2016:0.16370283 2017:0.3010971 2018:4.3626819 2019:0.043597102 2020:0.1198172 2021:0.066423237 2022:0.12758432 2023:0.13145986 2024:0.48972756 2025:0.051896196 2026:0.10101768 2027:0.02281257 2028:0.074854016 2029:0.12988573 2030:0 2031:0.18899232 2032:0.8239671 2033:0.084045194 2034:0.24425033 2035:0.018134553 2036:0.31127259 2037:0.2884216 2038:0.022274036 2039:0.059156101 2040:0.0047307806 2041:0.11730589 2042:0.14041623 2043:0.24677391 2044:0.064706586 2045:0.51243639 2046:0.13978678 2047:0.49786118 
